37 512
<space> -0.00010785104 4.139025e-05 0.0009943551 0.0017589567 -0.0018205786 -0.0013837257 0.0012602002 0.0017492949 -0.0009785226 -0.00073317933 0.0014394408 -0.0002960133 -0.000883758 0.001278319 -0.00095037854 -0.00035546557 0.0005690983 0.00020105026 -0.001617824 -0.0018447168 0.0014268769 0.0009889777 0.0013211183 0.0001477412 0.0012378787 -0.0006639811 -0.00018238509 0.0011287765 -0.0014711197 -0.0007719398 -0.0014660613 -0.00018265563 0.0018597065 -0.0014303665 -0.00045600565 -0.00037631087 0.0015769094 -0.0011618837 5.3193685e-06 -0.000928897 -0.0018766153 0.0009781044 -0.0017158533 -0.0008584788 -5.5187893e-06 -5.8618636e-05 -0.0014960505 0.0018785343 0.00097579806 0.0018045709 -0.0015935096 0.00087969104 -0.00080306205 0.00016238366 0.001656589 -0.0008714343 0.000885298 -0.00132773 -0.00068948127 0.001836014 -0.00030645414 6.078852e-05 -0.00080898986 -0.0014950408 -0.00029217228 0.00048208743 -0.00017314938 0.0010847312 -0.00053604797 0.00043784463 0.0010616404 0.0016278164 -0.00028548017 -0.0017999345 0.00085790706 0.00010949684 0.0014575468 -0.00015249675 -0.00051456015 -0.0017064867 -0.00016366449 0.0005480245 0.0010559608 0.0013815904 -0.0011117734 0.0003636735 0.0011902725 -0.0009403963 -0.00060308434 0.0013261262 0.0003205956 3.6676425e-05 0.00067901594 4.3612537e-05 0.0018827858 0.0009869065 -0.0017457501 -0.0013762977 0.0001774639 0.0012463642 -0.0016862552 0.00071248715 0.0010098591 0.0011227694 0.0014611845 -0.0012020003 0.00021410719 0.0011777211 -0.0005517307 -0.0012077648 -7.779133e-05 -0.0016362714 -0.0010911701 0.0013922988 0.0006503391 0.0014091138 0.0013293003 0.0014706901 -0.00073813275 -0.00011017087 0.00045996235 -0.0008807831 0.0016425806 -0.0019235505 0.0013191412 0.00056767184 -0.0009632298 0.0008583864 -0.00033662518 0.0013091263 0.0019469057 -0.00085626636 -0.00011388127 -0.0011095271 0.00074815715 0.00053970015 0.0013457402 0.001192428 0.0018668462 0.0018075914 0.0015387121 -0.0013610236 -0.0017855653 -6.872976e-05 -0.0006117624 0.0015374541 0.0011580723 -0.00030120817 0.00029715776 0.00035261968 0.0015270568 -0.0018566978 -4.1555893e-05 0.0006815585 -0.00018373714 0.0016404259 0.0017602489 0.0012810815 -0.00014293821 0.0015064416 -0.0016638445 0.0006266267 -0.00090538413 -0.0009957441 0.0007031412 0.0010517008 0.0015186094 -0.0011249377 0.0014536255 0.0012985677 -0.0007251901 -0.0017127272 0.0010588451 0.0012731303 -0.00015878947 -0.0013145059 -0.0013878783 -0.0004883396 0.0010053634 -0.00072022574 -0.0018290179 0.0007434595 0.0009530949 -0.001258528 0.00023680471 -0.00040523618 -1.0451727e-06 -0.0019340947 0.00052366446 -0.0009334467 0.00021238162 -0.0003103782 0.00042849185 -0.0015384915 -0.00053239614 0.0005186292 0.001045695 -0.0004670844 -0.0018583247 0.0008781825 1.4991461e-05 0.0006021615 -0.0013339944 -0.00026963738 0.0014974596 0.0014368691 -0.00072619395 0.00051814714 -0.0016273507 0.0012148491 -0.00090803916 -0.0006220902 0.001819971 0.00016271776 0.00146219 -0.0011852366 0.0010043567 0.0019405974 -0.0016528635 -0.001003048 -0.0013812042 -0.0009517723 -0.0007292577 -0.0016694353 0.0015528431 -0.0009455213 0.001648374 0.0010217085 -0.0012777785 0.0007708277 0.0010630849 -0.0014532378 -0.0014461029 -0.0004899554 -0.0016865787 -0.00030352824 -7.240289e-05 0.00064174377 0.00028314238 -0.00017044533 -0.0010879843 0.00033568454 -0.00017322437 0.0013323504 0.00077138416 0.000887835 0.00028316313 -0.00052572956 -0.0008508458 -0.00020401296 0.00027763896 -0.0005124961 -0.0013818823 -0.001522227 -0.0017851656 -0.0011564483 -0.00036252057 -0.00084544433 -0.0012591119 -0.000722234 0.00083767483 -0.0007326216 0.0016382809 0.00029710887 -0.0014167224 0.0018374594 0.0014912671 0.0010750544 -0.0013403558 0.0011366988 0.0007812211 0.0010189397 0.000833823 0.00038017269 -0.00061710615 0.001637634 0.0018789974 0.0007410949 -0.0005591393 -3.7601367e-06 0.00023855451 -0.0016532775 -0.0016130047 -4.628749e-05 0.00023828237 -0.0011175235 -0.0009206171 -0.0014338825 0.0016275379 2.5213501e-05 -0.0008786591 0.0011167183 0.0017935481 -0.00079964445 0.0015595893 0.0010474366 0.001142832 0.000102515405 0.0016093034 -0.0013731744 -0.0016083117 0.0018180233 -4.1164047e-05 -0.00038746238 0.0008938476 -0.0007968926 0.00053808163 0.0013596243 0.0011856068 -0.0014712979 0.0018317434 0.0009095792 0.0007771252 -0.0012186851 0.0016523786 -0.00041995276 0.0017217319 -0.0010485883 -0.0015917397 0.0013343499 0.00032366044 -0.00042786516 0.0018569727 0.0018555715 -0.0019121344 0.00048992 0.0012008906 0.0007547072 0.00039072352 8.589989e-05 0.00012949434 -0.0007499647 -0.0013971396 -0.00040983406 0.0007667933 0.0017267223 0.0018080458 -0.0011664841 -0.0018341854 0.0019169862 0.00067013595 0.0010102845 0.0012304838 -0.0005480102 0.0014346498 0.000549057 0.0005623853 -0.00047100306 -0.0006153292 -0.00046258554 0.0008419632 2.0047813e-05 -0.0018743061 -0.0018873592 -0.0012045318 -2.6762758e-05 0.00038827694 0.0018417077 0.0010919285 -0.0008325679 5.573674e-05 0.0009668253 0.0015063939 -0.00022603036 0.0008420659 -0.0011353506 -0.00015541005 0.0015852343 -0.00046116227 -0.0018894613 0.0011282135 -0.000768686 -0.00023565284 0.00194461 -0.00044144824 -0.00092900725 -0.0010377661 0.0013639035 -0.0011130436 0.00041148165 -0.0010255902 0.0011952491 0.00085169007 0.00051248004 -0.00029072174 -0.0005401624 0.0017607219 0.0010181948 -0.00042557655 -0.0018506171 -0.0014538626 -0.00020370525 -0.0001543725 -0.0005057015 0.0018911302 -9.209178e-05 0.0011470562 -0.0014503436 -0.00048637736 -0.0010859172 -0.0013986675 0.00024576066 -0.0014042816 -0.00044135712 0.00073293026 0.001140995 0.00022826098 0.0004092037 -0.0008033583 0.0014067342 -0.0012367056 0.0009080264 -0.0016021384 0.0003962281 -0.0009773087 -0.00082853524 -0.0006016018 0.0011076372 0.0011399295 -0.0009684801 0.00015222748 -0.0016622612 0.0015209363 0.0018091007 -0.0005286307 0.0001578655 0.0001459522 0.0010721295 -0.0016783355 0.00011452827 0.0013407001 0.00043763968 0.0002147769 -0.0018186918 0.0016611076 -0.0012206158 -0.00058454624 0.00068406755 -0.00015110962 0.0002796491 0.00035124493 -0.0013285688 -0.0019020791 0.0017662644 0.0012051155 -0.0013479562 0.00066968746 3.9579463e-05 0.0009297582 -0.0013883355 0.0007854627 0.00084765995 0.001944186 -0.00087611476 -0.0002723605 -0.0014296129 -0.0019002089 -0.0017748124 -0.00019775896 -0.0012753515 0.0009486089 -0.0012071658 0.00048929465 0.00014006511 -0.00066807505 -0.00019297899 0.0019542808 0.0017878672 -0.00086855603 0.001779077 -0.0011004556 0.0011583369 -0.000603256 0.0006737286 0.0005854906 0.0013478716 -0.0004655611 0.0017171552 0.0014803141 -0.0018627825 -0.0015653406 -0.001493579 0.00056382397 -0.0005432669 -0.0013553236 -0.0015857429 0.0016247134 0.00039298926 -0.0018197106 -0.0009355914 0.0006133652 -0.00092302647 0.0010255224 -0.00082523865 0.00051554065 -0.0015739248 0.0012087941 0.00094256626 0.000150813 0.0005884252 -0.0017034538 0.00041702823 -0.00017208842 -0.001821018 -0.001844941 -0.00027844423 0.0008626382 0.0007230927 -0.0012680438 -0.0013384114 -0.0009788742 -0.00044303207
<endoftext> -0.0014169045 -0.0018776398 -0.0005374959 -0.0016349952 -0.0011820827 -0.001106631 -0.0004576857 -0.00033576565 -0.0017473284 -0.0001419506 0.0015914905 0.0015034236 -0.0014066236 -0.000715545 0.00060891797 -0.0018697865 0.00029063012 0.0012773465 0.0011211225 -0.0017109569 -0.0008820939 -0.0015885745 8.7106955e-06 0.0018084053 0.0011667833 0.0009904263 0.0009907547 -0.0006332017 0.0018655413 -0.0014382697 -0.0014189958 -0.00044300093 -0.00015444453 -0.0006289046 -0.00011647402 0.0014628152 -0.00013730396 -0.00031777984 0.0005344964 -0.0016339121 0.0015355468 0.0016678993 -0.0018749238 0.0004777068 0.0019351653 -0.0014979341 -0.0013622855 -0.001511646 0.0016402106 -0.00013379722 0.0017857958 -0.0015931028 0.0007313151 0.00051618705 0.00014365478 0.00045519145 -0.0014590316 -0.0018280353 0.00046124443 0.0012004869 0.0015621035 0.0011202458 -0.00015198933 0.0016242333 -0.0018215814 0.00066599343 5.189513e-05 0.0007549994 0.001441929 -0.0013161822 0.0010889518 -0.0018606831 -0.0001581194 -0.0016961108 -0.0009939102 0.00181438 -0.00036210346 0.0005711124 0.0017718377 0.0017453331 -0.001600725 -0.0005907138 0.0019315869 0.0009971854 -0.00030854062 -0.0016960262 0.000577164 -0.001304455 0.0015884078 -0.00087201234 -0.0002072674 0.0001973883 -3.721203e-05 0.00022477408 0.001196859 -3.3083193e-06 -0.00063598977 -0.00029538653 0.0011524647 0.00029503414 -0.0001405055 0.0018210046 -0.0009613726 -0.00016133761 0.0017939184 0.001319503 0.00029280435 -0.0017370393 0.00022580533 -0.00044683722 0.0018324412 0.00023852076 0.0002940814 0.00047216646 -0.00036016502 -0.0009764015 4.5343582e-05 -0.0003956441 0.0012895245 0.0017464724 -0.00013034476 0.0005841846 -0.001192353 0.0003330762 -0.0013536225 -0.0016993857 -0.0011513791 -0.0017500545 0.0014223439 -0.00112814 0.0016164106 -0.0014163129 0.00067063665 0.0018903681 -0.0015222874 -0.001944928 -0.0008477624 -0.0005235232 -5.09543e-05 -0.0017266888 -0.0016850628 0.0005488192 -0.001603317 -0.0017718775 -0.00045918007 -0.0016867222 -0.0013793575 -0.0016398955 -5.8745816e-05 -0.0008914925 0.0012927903 0.00029884302 -0.0006532467 0.0011937021 -0.0011745279 -0.00090892875 -0.0014082133 -0.00084575237 -0.00035386838 0.0012695176 -0.0005387533 0.0009605233 0.001349379 -0.0014585542 0.0008913967 0.0011986841 -0.0005778937 0.001296003 0.0011965977 -0.0012561806 -0.0013214204 0.00049515796 -0.0003189151 -0.0011844897 0.0018528604 -0.0010018034 -0.0012814691 -2.3163091e-05 -0.00052830565 8.56672e-05 -0.0006904399 -8.3295316e-05 -0.00013904349 0.00015995074 0.0015996429 -0.001119942 -0.00032471222 0.001088701 0.0015946069 -0.00086826616 0.0017539263 0.0016127033 -0.000866006 5.8916783e-05 0.00083350204 -0.00076751044 -0.0010859186 -0.0012722928 -0.00013065817 -6.0163453e-05 0.00086987414 -0.000484727 -3.300663e-05 0.00047921855 0.0009506135 -6.916388e-06 -0.0012403834 -0.0018097128 5.2573023e-06 0.0013004183 0.00028478255 -0.0017520827 -0.001550748 0.0012783367 -0.0007403002 0.0012227731 -0.0013070545 0.0016546787 -0.0012725199 0.00064455485 -0.00020716306 -0.0013252165 -0.0006395943 -0.0002267964 -0.0010669177 -0.00023567941 -0.0014756382 0.0005151315 0.0017702205 -0.00046636947 -0.00019344852 0.00068674295 0.0016929031 -0.0011581009 -0.0013464671 -0.00057167874 0.0017913523 0.00016941225 -0.0016935677 -0.00028221624 0.0018542088 -0.0014753223 -0.0010460059 0.0018231714 -0.001752956 0.0007485589 0.0001311714 0.001303599 0.0016250223 -0.000557625 -0.00077951327 0.0017401983 0.0004063513 0.0012227603 -0.0018439656 0.0018728491 -0.00026376476 -0.0011817089 0.00058707135 -8.915032e-05 0.0009183649 -0.00044684316 -0.00080922886 0.00044295847 0.0016309868 -0.0009787992 0.0005225322 -0.0015587363 -0.0013250519 -9.063548e-05 -0.0017150936 0.00054599246 0.00031090487 -0.00045307842 0.000979559 0.0019051376 0.0016517466 -0.00036705835 0.00040134016 -0.0007823301 -0.001610254 0.0012247086 -0.00038126216 -0.00013060796 -0.0003466867 -0.0008833559 0.0007958647 -0.0008340518 -0.0018695102 0.0017495137 0.0008142408 0.0018043888 0.0012983042 0.00057308696 0.0019171443 -0.0008632521 -0.0013305283 0.00082647265 0.00073058996 -0.001106721 0.0018949693 -0.0006947737 0.0018642328 0.00016144536 -0.0012397877 -0.00038660533 -0.0014395305 -0.000580144 0.00020084417 0.0018502322 0.0018278977 -0.0012878375 0.0006793248 0.0004438653 -0.00048578213 -0.0018031778 0.00020088727 -0.0015955899 0.001233086 -0.0011331706 0.0010810615 0.0019199788 -3.112758e-05 0.0008837155 -0.0003561747 0.0014383256 0.0007677966 -0.0017611306 -0.0004689307 0.0007100826 -1.9790767e-05 -0.00023410175 -0.00020646401 -0.00032831015 0.00011840021 0.0008163254 -0.00083194685 -0.0007483065 -9.791146e-06 5.596018e-05 -3.433122e-05 -0.00093391567 0.0008422213 -0.00042411985 0.0004109244 0.00012873313 0.0011657459 -0.0013367491 -0.0013317479 -0.00087508524 0.0018471469 -0.00030878463 -0.0018431126 -0.00010585606 -0.0008708912 0.0011720046 -0.0018732407 0.00055844436 -0.0018075684 0.00024561427 0.001172103 0.0014421634 -0.0014856124 -0.0011836232 -0.0013378131 -0.0015445413 -0.0018553893 -0.00041262512 -0.00016289958 -0.0014180493 0.0013249903 0.00021889745 0.0011389724 0.00028740196 0.00015498111 -0.0014395977 -0.00042327272 0.0008450638 -0.0009926454 0.00022037508 0.0005630421 -0.00030162817 0.0019413973 0.0016302823 0.00047277336 0.0013899603 0.0011528713 -0.0010909088 -0.0010081556 -0.0013030322 -0.0015197407 0.0016238015 -0.00038858957 -0.0013400295 -0.0008109192 0.0010051209 -0.0005608912 -0.00073282135 0.00031857073 -0.00054244156 -0.00031034293 0.00021209671 -0.0005830049 0.0016626765 0.0007658233 -0.0019468608 0.0012208925 -0.0013195764 0.00015184916 0.0008596056 -0.0009981064 -0.00041123398 0.0015822656 -0.0008282134 -0.0014921043 0.0018100591 -0.0004182188 -0.0009201741 0.0016766284 0.0008374359 0.0008456621 0.001812392 -0.001654223 0.0010271588 0.00040060325 0.00081782066 0.0003309851 0.00087191584 0.00087638345 0.0011918837 -0.00062592287 -0.00089448795 -8.55374e-05 0.00049641385 -0.00063657603 0.0011838696 0.0008121741 0.0015183104 0.00050132134 0.0015875251 -0.0002700608 0.0015792947 0.0007243145 -0.0015715492 -0.0007700229 -0.00048143935 0.0009580258 -0.00017196522 -0.00055384345 0.0015307851 0.0018204356 -0.00031703204 -0.0010085311 -0.0009193497 -0.0009458797 -0.0018764919 0.00026813397 -0.0008256989 0.00049432606 0.0010964747 -0.00079314096 -0.001875727 0.0003011109 -0.0013124907 0.00048640228 -0.0007386183 0.0013844126 0.00012578572 0.00069519965 -0.0005344014 -0.000333775 0.0014952766 0.0002752768 -0.0011405704 -0.0015328735 0.00024156107 0.0012609225 0.0010861274 -0.0017534698 0.0016786834 0.0007909264 0.0014581286 0.0019024535 -0.0014232637 -0.0017661059 0.001141314 0.0018337608 0.00068731816 0.0013872784 -0.00030479865 0.0015525407 -0.0018545889 -0.0015687065 -0.0012960212 -0.0007822091 0.0009744283 -0.0007464698 -0.001626293 0.001643008 -0.00073100894 0.0016812215 -0.00095551147 0.00076306827 0.00096078997 0.0004672071 -0.00055090897 0.0005563222 -0.001611873 -0.0005397127 -0.0005046132 0.0014154308 -0.00067555695
<newline> -0.001291645 0.0008432576 -9.3788025e-05 -0.0007047459 0.0013400449 0.00075980433 -0.00076151773 0.00014671856 0.00178771 0.001516194 0.001240865 0.0009145976 0.0004666178 -0.00036073453 -0.0012451016 -5.9537568e-05 -0.00030090986 -0.0001052617 -0.0012224597 0.0014519513 -0.0012875804 -0.0014130747 -0.0005382163 -0.00029647426 -0.001491796 0.00013896699 -0.0010369647 -0.00024746385 -0.0014394525 0.0003804177 0.00064027135 -4.940849e-06 -0.0010669309 -0.00033855796 0.0013835651 0.00073113997 -0.0017364016 -0.00066822633 0.0004562376 0.00041500764 -0.001847054 0.00089321705 -0.0016966931 -0.0014422314 0.0006828907 -0.0006785798 0.00069596217 0.0017360976 -0.00069610646 0.0018194388 0.00033327847 0.0019233929 0.0011169126 -0.0017845533 -0.0006525366 0.0012756521 0.001095216 0.0016997968 0.0013559965 0.0015696336 -0.0019143174 0.0008379839 -0.0009817472 0.00069031684 0.0011852831 0.0008585117 0.0014661247 0.00029571698 -0.00024753262 0.0011236519 -0.0011052083 5.4215375e-06 0.0018459212 -0.0010706738 0.000747391 -0.001585352 0.0019096961 0.0015999896 0.00025044088 0.0009971126 0.00027809414 -0.0012647234 -0.00027781303 0.001260975 -0.00089841173 -0.00077959936 0.00096116826 0.00052841863 -0.00035780232 -0.00056404085 0.001175775 -0.0011146696 -0.00063198654 -0.0012656744 -0.00082277035 -0.001675409 -0.00087622006 -0.0016614196 0.0002758547 -0.0016856515 -0.0019363764 -0.0016047147 -0.0013243514 0.0013074293 0.0007424662 7.310968e-05 -0.00057845423 -0.0014555886 0.00010726693 9.751807e-05 4.244195e-05 0.00016783166 0.0001573187 -1.011787e-05 -0.0015668399 -0.001148028 -0.0016371838 -0.0002591968 0.00035729323 0.0014495015 -0.00038228903 -0.00045050276 0.0018544229 1.8074785e-05 -0.00047227865 0.0016769571 0.00052476896 -0.0010448858 0.0012898946 0.0008796951 -0.0013773824 -6.597004e-05 0.00016728147 0.0011243803 -0.0003397299 -0.00055394135 0.00033967642 0.00016584355 0.00023601332 -0.0005174806 -0.0011731747 0.0014350697 0.0014823548 0.0016187754 -0.0016848815 0.0005115825 -0.00069818104 0.0018804031 0.0005687825 0.00090747734 0.00046555055 0.0012909228 -0.0011224189 0.0015440298 -0.0004721221 -0.00089051644 -0.0004034137 0.0019037623 -0.0013413262 -0.0004254299 0.0013701482 -1.0956549e-05 -0.0012286523 -0.0012501006 0.0017461526 0.0012588402 0.0009307488 -0.00063405186 -0.0018101602 0.0007428049 0.0013982031 -0.0011016644 -0.0015408602 -0.0005803204 -0.0009675044 -0.00045367616 -0.00038244214 -0.0010287432 0.0018445334 -0.0018183843 0.0008807704 0.001052216 -0.00027710703 0.0017584232 0.0019295875 -0.001068478 -0.0011780262 -0.0013186252 -0.0015413873 -0.0005974113 -0.0010934018 -0.001629995 0.00015230078 0.00058482966 0.0012518876 -0.00051431626 -0.0008691098 0.00024327512 7.606941e-05 0.0015819771 3.2632448e-05 0.001411365 -0.0016136784 0.0016445277 -0.0003685655 0.001698252 -0.0014945036 0.00035041798 0.00020389729 9.47089e-06 -0.0009986799 -0.0018083124 -0.0014188889 -0.0015584622 0.00037281396 9.491246e-05 -0.00035784522 0.0013899178 -0.00048375726 -0.0002611889 -0.0017392539 -0.0019396248 0.0017544071 -0.0011245399 -0.0012439175 0.001016509 0.0013047009 -0.0013374797 0.00018713146 -0.0011772704 0.0003167703 -0.00083770684 -0.00067138474 0.0004226795 0.0016886987 0.0013171834 -0.001882617 -0.0010994117 0.0015407827 0.00038997672 -0.00082597684 0.00011358102 0.0018603718 -0.00020955967 -0.0018427353 0.00031753225 0.0012212285 0.00122984 0.00080143724 -0.0011042024 -7.438895e-05 -7.0827655e-06 0.00089171826 -0.0015679144 -0.001567258 5.4176202e-05 -0.0016835636 0.0011351043 -7.7946504e-05 0.0019490654 -0.0010445985 -9.785229e-05 0.0015142763 -0.00079662545 -0.0009809749 0.00030487266 0.0005197563 -0.00049879355 0.0012558728 -0.0014952401 0.0006594098 9.883445e-05 0.0017059381 0.001169244 0.0013342019 0.0015326643 -0.001854729 0.0018679731 -0.0015209396 -0.0005186616 -0.0009605579 -0.00097113027 -0.0015706263 -0.0015209154 -0.0008917702 -0.00024468088 -0.0009933851 0.0011992954 -0.0018581849 -0.0010323866 0.001844314 0.0013670871 0.0015000796 0.0008286389 0.000103217455 -0.0011687719 0.0011702921 0.0005157014 0.001507106 0.0012477936 0.0015514717 0.0016910329 -0.0019341472 -0.0013218132 0.0002560802 0.0012585168 0.0014411593 0.0010803185 0.0014944725 -0.0010035668 0.0012861433 -0.00080413366 -0.0017675501 0.0017860944 0.0002603392 -0.0005399308 -0.0004842826 -0.00082561176 0.0009371281 0.0008585331 -0.0005182605 -0.0014328485 -0.00069832645 -6.551578e-05 0.0011865922 -0.00055292883 -2.6305128e-05 0.00016778454 -0.0013886553 0.00040407403 -0.0002806064 0.0005468983 0.0009442924 -0.0002670216 -0.00054332305 0.0015151289 0.0009830279 0.0013121506 0.00088299543 0.0017005622 0.0014578438 -0.00020994962 0.0017096209 0.00089816586 0.0010640986 -0.00027315633 -0.00039649132 -0.0008669653 -0.0016666619 0.0005925278 0.0017411705 0.0017463943 -0.00038245338 0.0011896747 0.0007360447 -0.00083795073 0.00039468918 -0.0010624494 0.0016019589 0.0010642991 0.0006218829 0.00079783704 0.0016934281 0.0014171166 -0.00016545945 -0.0013794714 0.0016354307 0.0014153804 0.00033826972 -0.00026402247 -0.0011522694 -0.00088442006 0.001690457 -0.00061377604 -0.0012376062 0.0019272123 0.0015062604 0.0017822894 0.00022310363 -0.0016266494 0.0016454654 -0.00072289095 0.0011242538 0.0008586695 0.0018932914 -0.0018174073 0.0018009894 -0.0018135734 -0.001351802 -0.0017786673 -0.0010865958 0.0014417482 0.0017883411 -0.0006521456 0.00072575075 -0.00070909 0.0015385217 0.0011471404 3.472927e-06 -0.00071036484 -0.001414305 0.00093419955 0.0002815501 -0.00051219773 0.0015356197 -0.00079254474 -0.0017914333 -0.00044112813 2.5662897e-05 -0.0012971731 -0.0010752616 -0.0016593876 0.0018061801 0.0014492036 -6.1133294e-05 0.0014423185 0.0015581712 -0.00015001546 0.0012975611 0.0007381765 0.0009914406 0.0014160436 -0.0009309572 -0.00042525478 0.00017584478 0.0008285713 0.00064501434 0.0009969755 0.0008981295 -0.0016474377 -0.0006214956 -0.0014127267 0.0018869335 0.0009795048 3.6170775e-05 0.00080579 -0.0014936712 -0.0012274734 0.00060071104 0.0012799953 0.0007719733 0.0011787635 -0.00038913265 -0.0006529685 3.6123016e-05 -0.00062299735 -0.0010739289 -0.0015218911 0.0012763106 -0.00021072003 -0.00036911436 -0.001527838 0.0018215262 0.00016667307 0.00034545612 0.00048478952 -0.0014445425 0.00031944836 0.00058381795 -0.001674858 0.0009689635 0.00047155918 0.0014619468 0.0009793363 -0.00059547095 -0.0013997247 0.001390031 0.00037292458 0.0010155546 0.0012477499 0.0003740117 -0.0011961319 8.6154694e-07 0.0016165444 -0.0011951048 0.0018442776 -0.0014039868 0.00082919974 0.00042173616 0.0014547714 -0.0009551792 -0.0008928633 -0.001194673 0.00064460665 -0.00088109233 0.0016678206 -0.0008356899 -0.0017743324 -0.0009369245 0.0012552496 -0.0012429922 -0.0010306187 -0.0014292122 0.0011772531 0.00065444055 0.00055583124 -0.00061615877 0.0011772544 -0.0012030492 -0.00038702358 -0.0011671938 -0.00019420977 -0.00039765897 0.0016572786 1.4724875e-05 -0.0016762441 -0.00106139 -0.00134287 0.0005265041 0.0018502617 -0.0011357119 0.0016151926
! 0.0016655007 -0.0013804317 -0.0017355027 0.0018496213 0.0016352092 -0.00091363204 -0.0013141792 0.0015308993 0.00073644455 0.0015814691 -0.0014798112 -0.001859542 0.00030874083 -0.001915865 -0.0009545861 -0.0006751618 0.0018809882 0.001685708 -0.00055384054 0.001139509 0.0016089971 -0.00044279316 0.0018615287 0.0013975714 0.00039692636 -0.00075130205 -0.0009914754 -0.000594977 0.0015393271 -0.0012098501 -0.0005685341 0.0017944897 0.0006733212 0.0011848996 -0.0015679644 -0.00014547806 0.0010784041 -0.00092237536 0.0014597287 0.0018198339 -8.066151e-05 -0.00040333174 -0.00011733909 -0.0011301101 -0.0016376758 -0.00029387936 -0.00049873604 0.0008564276 -0.0013403639 0.0010575345 -0.001318285 -0.0015260687 0.0016567179 0.0017415015 -0.00068054005 0.00068153086 -0.0011300666 -0.0017086449 -0.001076033 0.0013189681 0.001253929 0.001842052 0.0013773948 0.0013210088 0.0002545636 -0.0019151627 0.0008956853 -0.000104360144 0.001236082 0.00034792823 -0.0006132735 0.0015156682 0.00030326215 1.0343614e-05 -0.000898982 -0.0016528126 -0.0015149475 0.0016963286 -0.0017426781 0.0017654515 -0.001811479 -5.554299e-05 -0.00037235164 -0.0017424442 0.0016866724 0.0013242238 0.0005906419 0.0009437857 2.2727567e-05 0.00184061 0.0013718443 -0.0019250173 -0.0008653713 -0.00025125622 0.0005961918 -0.0008457701 0.00028146288 -0.0015329444 0.0005425645 0.0009182104 0.0009631982 -0.00062135607 -0.0016467412 -0.0018012659 -0.0001407586 -0.0014308818 -0.001332248 0.0011945844 0.0014026421 0.00041232878 -0.001542976 -0.0011141937 0.001572822 0.0007667832 -0.0010250626 -0.0014440226 0.00015118021 0.0006773703 0.00040583793 0.00060570525 -0.0010972399 -0.0019309911 -0.0013685521 4.4865807e-05 0.000901369 0.0008841789 0.00036684875 0.0010094489 -1.9395644e-05 0.00080353953 -0.0017820232 0.0015030268 0.0012014725 0.001001191 0.0014057768 0.0016473372 0.0001442077 -0.00033295606 0.00010246916 -0.0018203829 0.0016410163 -0.0012450224 0.0016475295 -0.0008279615 0.0001235005 -0.0017909666 -0.0018674362 -0.0015296811 -0.0015092666 7.521295e-05 -0.0014107412 -0.0009671457 -0.0010295708 -0.0008363652 0.0013694396 0.0009450385 0.0016962322 0.0013879768 -0.0011143449 0.0014133109 -0.0018136764 -0.000505307 -0.0015158935 0.00081855914 0.00035249934 0.0013770176 0.0005768012 -0.0013636716 0.0015064271 -0.001168194 0.001758278 0.0005753119 -0.00078519515 -0.0009151737 -0.00086388225 -0.0012021502 0.0018299011 -0.00051865715 0.0015192119 -0.0018934193 0.00041239767 -0.00024283232 0.0014736933 -0.0017691012 0.0014531263 -0.0009970991 -0.0011762263 -0.0011064997 -0.0006608162 -0.0006675668 -0.0006249441 -0.0014653514 0.00013839413 -0.00011199264 -0.00032895713 0.0007332233 -0.0014880268 -0.0006299031 0.0010072144 0.0016680639 -0.001917448 0.0014062241 0.0010355262 -0.0007575366 0.0016752924 -0.0017995441 0.0014128722 0.0010484442 0.00025135177 -0.001014526 -0.00081734266 -0.00065699586 0.00031436866 0.00030680184 0.0014438726 0.0019487325 0.0017310791 -0.00078089815 0.0018831356 -0.00012336252 0.00094922725 0.0004969378 -0.00011962033 0.0007151558 -0.0010398809 -0.0011234931 -0.0014838998 0.00036909708 0.0012751296 0.00017166941 0.00024360995 0.0006179927 0.0015883114 -0.0015053118 0.0004415478 -0.0014577368 0.00072524947 0.0018566207 0.00146955 0.0012564845 0.0015661087 0.0012788455 0.0013397108 0.0016967655 -0.0009679004 0.0018000212 0.0009888358 -0.00041580267 0.0016572091 0.000991754 0.0018833963 0.0005543266 0.0019276155 0.0002339187 0.0017805548 0.0007012669 0.0012808709 -0.00070555904 0.0013268967 0.0014169546 -0.00041673213 -0.0003647156 0.0007059821 -0.0013749526 0.0018993426 -0.0019113262 -0.0012693407 0.00054381136 0.0012556745 -0.0010488234 0.0005383504 0.0017833838 -0.0013293672 -0.0011898816 -0.00097359763 -0.00071563025 0.00036108703 0.0018917014 0.0012547493 7.5899596e-05 0.0004835329 0.0016482488 0.0017798139 0.0010981214 0.0011597397 -0.0014865026 -0.0007481563 -0.0011086785 0.0012069524 -0.00044161678 -0.0017142993 0.001489774 0.0016402171 -0.00064866873 0.001780992 -0.00014509328 -0.00070958625 -7.425803e-05 4.067933e-05 -0.0006847656 0.00054954307 0.0011197915 0.0013393756 -0.0017406486 -0.0004297813 -0.0010696675 0.0014706531 0.0012708837 -0.0008501306 0.0004517414 -0.0011630092 4.4277916e-05 0.0018488233 -0.00050857035 -0.0010125397 -0.0014447961 -0.0005686423 -0.00016999984 0.0006877957 0.0019030566 -0.00066245894 0.0003717758 0.0018906033 0.00029963412 0.00019233009 0.0019141783 0.0018142322 0.001505063 -0.0012068505 0.001950001 0.0011419051 0.0017706879 -0.0003909594 0.00065478054 0.0013345457 -0.00075966195 0.0012965496 0.00050124107 0.0018204025 -0.0005895386 -0.0006070076 0.0012140629 -0.0017711138 -0.0014169357 -0.0012678136 -0.00014818698 -0.00046084926 0.0013291576 0.0018024034 -0.00017675066 0.0002777332 0.00039640235 -0.000395058 -0.0015692499 0.001452717 -0.0008409822 0.0008937567 0.0017742974 0.00059572695 0.0006159828 0.0007934662 -0.000527964 0.0007479312 6.6038076e-05 0.0010988199 0.0010733197 0.0003585537 0.001123878 -0.0017518509 0.0012807411 0.0018005702 -0.000822442 0.00031493395 -0.0010237808 0.00020656624 0.0005422801 0.0015944752 0.00010648368 0.00050042634 0.00025258854 0.0016417222 -0.0011144234 -0.0012227673 -0.00070664356 -0.0004493929 0.0009819173 -0.0015844459 -0.00055379694 -0.0016026904 0.0010053964 -0.00050231046 -0.0017701254 0.00079659186 0.0017588208 -0.0005930604 -0.0011422018 0.00058978645 -8.340092e-05 -0.0019486868 0.0016432628 -0.0014350371 -0.0009623748 -0.0005197916 -0.0010662221 0.0003377033 0.0018976822 0.0008908874 0.0015790173 -9.243273e-05 0.00012385433 -0.00052350824 -0.0017152664 0.00067144044 0.00040858478 -0.0018414962 -0.00097028975 -0.0018983184 -0.0011161802 0.00079629215 0.0016891405 0.000803304 0.0004653704 0.0015901264 -0.00021784428 -0.00027084138 -0.001707342 -2.3316945e-05 -0.00050135737 7.72879e-05 0.0014220546 -0.0013750887 -0.0007699155 -0.001302114 -0.0006912852 -0.00064612867 0.00041772617 0.0006497193 -0.00096735376 -0.00088760746 0.00022291428 0.0010662868 0.0010501068 -0.0005811005 -0.0008328872 -0.0010981836 -0.000105463616 0.0003813741 0.00029727694 0.0014378467 -0.0005334882 -1.3693379e-05 -0.0010800775 -0.00022772906 -0.0015066934 -0.00018759821 0.00025617005 -0.0016814658 0.0017087286 -0.0017976657 -0.0018818529 -0.0016618074 0.0014279826 0.0010667886 0.0018059383 0.0004991605 0.00016390195 -0.00049391214 0.0018284259 0.0005401513 0.0008017292 -0.00023051345 0.0001756254 0.00129467 -0.00014067798 0.00065186905 -0.00013077367 0.0010239992 0.00071223156 0.000503949 -0.00103637 -0.00092054886 0.00084019796 -0.0011566124 -3.4061777e-05 -0.00012436473 0.00068254577 -0.0016492764 0.0017227781 -0.00028368473 -0.0010407993 0.000791413 -0.0003782776 -0.0015181759 -0.0008778619 -7.557999e-05 -0.0017487421 0.000110801484 0.00047843758 -0.0006319169 0.00050133053 0.000484985 0.0019517215 0.00027830372 0.00039460303 0.0005412527 -0.0004070338 -0.0017005464 0.001566191 -0.00038528114 -0.0018910096 -0.0012800074 -0.0007690439
<tab> 0.0007722263 0.000983912 0.0011886855 -0.0013222952 0.00013477952 -0.00054186775 -0.0010172669 0.0013633723 0.0007722242 -0.00060647173 -0.001616738 -0.0010039855 -0.00012694656 0.0015257343 0.001180363 -0.0016504886 -0.0018678508 0.0013934551 -0.0004547587 -0.0007205803 0.0011231632 -0.0011415627 0.0009949013 -4.7370715e-05 -0.0013431748 -6.469592e-05 0.0012423471 0.0018155357 0.00043346517 0.0009864435 -0.00097160705 -0.00015579147 -0.0010388771 0.00023198173 -0.00035021923 -0.00070949283 -0.0013700016 0.0018856168 0.0005811533 -0.0004458596 -0.0008170092 0.0015066208 -0.0012662892 0.00060979754 0.0001537871 0.0016256598 0.0013352344 -0.00056792935 0.00049511384 -0.00032547727 -0.0018469113 -0.0005101325 0.00026058915 0.0012773484 0.0019500197 0.0017700031 -0.001565293 0.001268014 -0.0011158504 -0.00018959992 9.452299e-05 0.0012855165 0.0008732889 0.0008993826 0.001852274 7.472488e-05 -0.0011796379 -0.0012362568 0.0012561202 -0.001023961 -0.0005567783 0.0007962104 -0.00044734566 -0.0011767001 -0.00045380648 0.00023559092 0.00042655764 0.0011887661 -0.0010183614 0.00060129556 0.0014144902 0.00042837553 0.0010541803 -0.00094616466 0.0012018749 -0.0014844874 0.0006821789 -0.001820479 -0.00050861586 -0.0017723109 -0.00030989747 -0.00104788 -0.0007702223 0.00022553232 0.00054681726 -0.000298287 -0.001596175 -0.0011559613 0.0001601428 -0.0007708898 -0.0018417911 -0.00015143478 0.0012954219 0.0011678322 -0.0019369584 0.0006092809 -0.0011694509 -0.0017933805 3.358344e-05 -7.210398e-05 -0.0013617282 -0.0012265135 -0.00047384985 0.0013860668 -0.0014743328 0.0015033077 -9.271755e-05 0.00021369144 0.0018520869 0.00092376507 -0.0006978649 0.0007297827 0.00068762864 0.0012376597 1.3446847e-05 -0.00086385955 0.00025738176 -0.0010573856 0.000275954 0.0009622968 0.0010065717 0.0017931969 -0.0014670787 -0.0010554546 0.0012630763 0.00026453994 -0.0012915805 0.00017268544 0.00052297395 -0.00049397635 -0.00096874527 0.0009777189 0.0018793792 -0.0014382185 -2.291601e-05 -0.0005010929 -0.0012436104 -0.0002688637 -0.0010255357 0.0017697903 -0.0011308682 0.0007196677 -4.6359906e-05 0.00082414155 0.0004129189 0.0019523178 0.0001229603 -0.0010670944 -0.00023074052 0.00040441888 -0.0006586318 -0.0015326545 -0.0010938838 -0.0013184227 0.0012407941 0.00076631963 0.0016046397 0.0012732608 -0.0011971103 0.000530544 0.001655213 0.00031136037 0.0005990423 0.0011352825 -0.0017264955 0.0017819413 0.0013317296 0.0016621024 -0.0016065948 0.001205815 0.0012947627 -0.00026553316 -0.0012292351 0.0010404022 -0.0013396754 -0.0010398169 0.00068585464 0.0015777283 0.0016977985 -0.00086035597 -0.00179512 0.001876338 0.0012286654 -0.00077450013 -0.0016520929 -0.0009215207 -0.000772903 -0.0006395678 0.00016017952 -5.8026955e-05 -0.0006081423 -0.0011710065 0.0018401366 -0.00092290615 -0.0014182606 0.001501047 0.00049151 0.0016848566 -0.00087219686 -0.0013461822 0.00019216484 -0.00022944743 -0.0018356546 -0.000313425 0.000595845 0.0012825778 0.0013368112 0.0006264987 -0.0008679431 -0.00035920003 -0.0007697933 0.0011274912 -0.0012414752 0.00041086692 -0.0002625676 -0.001135036 -0.0014150293 0.0011426758 -0.0016326553 -0.00013424919 0.0005518242 0.0015115776 -0.0014255181 0.000645377 0.0019158307 -0.0013625765 -0.000690223 0.00100285 0.0010233092 0.00031751208 0.001556997 0.00016248651 0.00036557188 -0.0003131839 -0.001595029 0.00063638226 0.00038442042 -0.0017057153 -0.00013193014 1.5155306e-05 -1.2279962e-06 0.0017012815 -0.00048994855 -0.0011528805 0.0014612355 -0.0014179259 -0.0017514089 -0.00034971684 -0.0016342333 7.626502e-05 0.0003798778 -0.000482487 -0.0012595907 -6.30257e-05 -0.00021477218 0.00068194565 0.0015872837 0.0011436226 0.0016486298 -0.0017514938 0.0018442901 -0.00046193096 0.0016985727 0.0004659308 0.0007003046 -0.0018709357 -0.0018531533 0.0017546347 -0.00056605914 0.0005501041 0.0012537047 -5.8384205e-05 0.0018986815 -0.00020212845 -0.0018893267 -0.0013775602 -0.00020397539 -0.0016941797 0.0014494073 0.000706803 -0.0017085057 0.0016563777 0.0017439564 0.001142022 0.0013494579 -0.0018694784 9.611389e-05 -0.0018007657 -0.000715798 4.950864e-05 -5.471171e-05 0.00028629627 0.00063980964 0.00041497726 0.0010390149 0.0014687373 -0.0011492856 0.0015540959 0.001170284 0.001910954 0.0009029743 -0.00065014855 -0.0007316308 -0.00012245869 -0.00032313392 0.0019280671 0.00021945138 0.0007824548 0.0006676525 -0.0017290034 0.0013126098 0.0015997752 -0.00032550847 0.00045571657 -0.001265482 -0.0011967977 0.0016045874 -0.0005949674 0.001316119 0.00030321165 -0.00038681936 0.00059683126 -0.00078552257 -0.00034861974 0.000269686 0.0009545661 -0.00027479965 0.00012828506 -0.0015489676 0.0018548168 -0.001711598 0.0013810054 0.00076272065 -0.0013667037 -0.0010341682 -0.0015507623 -0.0010019785 0.0013810783 0.0018825816 0.00042109226 0.00012537838 0.0018607364 -0.0009715181 -0.00025057196 0.0006408904 -0.0012529908 -0.0018948227 -0.0018087354 0.0017621202 0.0010496613 -0.0009351189 -0.001626905 0.00025307745 0.00056220853 -0.00024323878 0.00024831292 -0.0008440028 0.0009362006 0.00028814632 0.0017339997 -0.0019488933 -0.0010292396 -0.0017780899 -6.808592e-05 -0.0015344878 0.0009828376 -0.0012492687 -0.0011627206 0.0009904784 -0.0015937386 0.0002844805 -0.0014140292 0.0019264331 0.0016864619 0.00034544687 0.0011304026 0.00089790236 -0.0011705738 0.0019053686 -0.0018911146 0.0015721802 0.0005382942 -0.0005964676 -0.0006957968 0.001771927 -0.0010630026 0.0015990088 -0.0011737943 0.0016388899 -0.00010854424 0.0015510492 -0.0006162511 0.0011678037 0.0017195045 0.0004971177 0.0002571456 0.0009840472 0.0015631411 0.0016732616 0.001658579 0.0013771167 0.0015627006 0.0016798615 -6.5793165e-06 -0.0001960872 0.00032533283 1.118609e-06 0.00013386858 -0.0016797289 -0.0018735464 -0.00045211264 0.0017438446 -0.0007127962 -0.0013628417 0.0009531552 0.00020902778 0.00036150625 0.00071330596 0.0006878593 0.0011186168 0.00024116419 0.00016479898 0.0017667033 0.00054366747 -0.0009186019 0.0012779289 0.0010180956 0.0005608764 -0.0006128643 0.000651767 0.0012430864 0.0013829349 0.0001837649 -0.0016666452 5.051837e-05 7.235601e-05 0.00077022426 -0.00184954 0.0018965744 -0.0013618253 0.0011251607 -0.001842158 0.001884667 0.0014304824 0.00024653753 -0.0006650282 -8.815171e-05 8.280004e-05 -0.0012517981 0.0011219613 0.0004634101 0.00073763984 -0.0014170466 0.0016651182 9.897276e-05 -4.0030583e-05 -0.001771514 0.0007907219 0.0013210617 0.0014363624 -0.0012535302 -0.0015345195 -0.0010784756 -0.00011772926 -0.0016287501 -0.0016092154 -0.00037455102 0.00022267771 -0.0018566956 -0.0007288938 0.00012571778 0.0013298431 0.0003385191 -0.00012326142 -0.0014611973 -0.0013165601 -0.00013569623 0.001458528 0.0010629974 -0.00028934822 0.0002287294 -0.001876098 -0.0002705582 -0.00090346724 0.0011345894 -0.00045664253 -0.000930389 -0.001850455 -0.00023439972 -0.001405697 -0.00032925105 -0.00079487386 -0.00046400964 -0.00063424406 -0.0015931674 -0.00024410897 0.00033028238 -0.00079065555 -0.0014926036 -0.0007002206 -0.001766789 -0.00014792084
middle 0.0011486447 -0.0005804041 0.00061619823 0.0009752451 0.001651894 0.0010985499 0.0018590936 -0.0018854752 -0.0015543879 -0.0013196194 -0.001459918 -0.0015551734 -0.0015212728 -0.00057541 0.0002734406 -0.0005612777 -0.001721277 0.00097538036 0.00017611723 0.00089675497 0.00140722 0.0014947641 -0.00015779542 0.00071352214 -0.0010015459 0.00037463603 0.0008879519 0.0019324963 -0.0006223827 0.00055396656 -0.0011204225 -0.00043129583 0.0015854685 -0.0007632736 -0.0002326659 -0.0018141664 -0.001851423 0.0017345628 -0.0011157794 0.0009856181 -0.0013587093 -0.00048017653 -0.0015686452 0.0014660123 0.0011973415 0.0010266529 0.0016353665 -0.00013549477 -0.0018183269 0.0017795366 -0.00096306455 0.0015327599 0.0010809441 -0.00020829553 -0.0014970109 -0.0002858819 0.0012211687 -0.0013604618 0.00028157924 -0.0015539513 0.0017061357 -0.00055904494 0.0018447327 -0.0011143154 -0.0018972934 -0.0016846278 -0.0007968682 0.0009217304 -4.8176124e-05 0.0017998422 0.0006064616 0.0007319142 0.00058444164 0.0015929667 -0.000467061 0.0014472702 -0.0018630387 0.00057179265 -0.00013332097 8.782173e-05 0.0013390038 -0.00055611006 -0.0004597941 -2.0245994e-05 -9.519472e-05 -0.0006969535 0.0012179075 -0.0012815268 0.0015418375 -1.9412919e-05 0.00051051006 0.0006308067 -5.4791562e-05 0.0003331165 -0.000612594 0.00092978525 4.5589357e-05 -0.0006401268 -0.001701248 -0.00195304 6.3199346e-05 -0.0011231347 -0.00021662874 -0.0008202916 -0.0016866039 0.00020789196 0.0011540754 -0.00043312088 -0.0013985261 0.00061519357 -7.258884e-05 -0.0010768843 -0.00021515765 -0.00012427673 -0.0006221817 -0.0019443549 0.0014931789 0.00072578713 -0.00049366674 0.001426505 8.890069e-05 0.0014018469 -0.00030258787 0.0014646951 -8.465964e-06 -0.001188119 -0.00092130894 0.0018801541 0.00011309195 0.00020020225 0.0016498886 -0.0012286326 -0.00034393792 -0.001596812 -0.0013056631 -0.0016779638 0.0007657288 0.00053593965 0.0010974075 0.00050222455 0.00041203137 0.00112135 -0.00041488148 0.0006181991 0.0016480203 7.5182805e-05 0.001227544 -0.0013171391 0.0012842357 0.00091588375 0.0009917034 -0.0019380248 -8.430367e-05 0.0006252258 -0.0011382119 -0.0013071293 0.0012427799 -0.001333147 -0.0010130096 0.0015874772 -0.0013707167 0.001668614 0.00012810502 0.0008604853 -0.00058894645 -0.001059311 -0.0017490002 -0.00011912672 -0.0009962118 -0.00059896533 0.0015846314 -0.0014932101 -0.0012334795 -0.0010267623 -0.0012917386 -0.0017259711 -0.00021718653 0.0018454696 0.0015684981 -0.0010298828 -0.0015887353 -0.00044275206 -0.0018108643 -0.00098972 -0.0011624261 0.00059137295 -0.001477903 0.0002434415 0.0004464798 0.001037154 -0.0003944455 -0.0019082772 0.0010199186 -0.001153895 0.00095420575 0.0003856802 0.0017221104 0.00029751865 -0.00035722431 0.0012658989 -0.0013820246 -0.0016399749 0.0007419472 -0.0005050055 -0.00081754575 -0.00037707743 -0.0019301599 5.0729188e-05 -0.00020614931 -0.0005805606 0.00048736262 0.00091733015 0.0012387297 -0.0015463171 -0.0009749764 -0.0017160546 -0.0017493028 -0.0007304088 -0.00024818245 -0.0016022985 -0.0010496887 -0.0004191395 0.0012411431 0.00030707652 0.0016261592 -0.0016230127 -0.0008928745 -0.00015819755 0.0017180472 0.00021550248 0.00029775532 0.000252649 0.00057135115 -0.0018362455 0.0006344037 0.0010687002 0.0010355839 0.00086849794 -0.0015782496 -0.00079343107 0.0016326555 -0.00011196651 -0.0018426706 0.00093655917 -0.0011802787 0.0013057453 0.001050748 -0.0009849707 0.00050327234 0.0010589601 -0.0007001229 -0.00029503004 0.0017897753 0.0017719647 -0.0018344654 0.0014772955 0.0019306794 -0.00055492774 0.00048230536 -0.00054837525 0.0016884888 -5.6210705e-05 0.001100677 0.0017986009 0.0008017963 -0.0013929626 -0.0003757423 0.00019285531 0.00039455984 0.0005786374 0.0018438988 0.00086111535 0.0019346005 -0.0016909826 -0.0011233129 0.00038853838 0.00071529514 -0.00019383659 -0.0013500266 -0.0006277737 -0.0016655218 0.0018382285 0.0007265551 -0.0015377175 0.0006225519 0.00081728114 -0.0011005156 -0.0011551 0.00020376995 0.0017522476 -0.0018848181 1.2798614e-06 -0.0013418986 -0.00018136474 0.0005956742 -0.0009813447 -0.0005448295 0.00013307045 -0.0012413397 0.0014222789 0.0008545804 -0.00167285 -0.00041940538 0.00061794627 -0.0016278261 -0.0013827068 -0.0016513439 -0.0010734224 0.0017263704 0.0013812187 0.00056349044 -0.0016711401 0.001123496 0.0009047561 2.3002056e-05 -0.001726668 -0.00036696743 3.660752e-05 -0.0015169246 0.00048074697 9.468099e-05 -0.0013788107 -0.0016147407 0.0011793176 -0.0016329384 -0.0010901048 0.001088693 -9.529154e-05 -0.00059655413 -0.0010143865 -0.0002349453 0.0010293596 -0.0011617444 -0.0009734581 -0.0009650898 -0.0009276409 -0.0015606501 -0.0019065887 0.0014811561 0.0015640213 -0.0008383889 -0.0018206033 -0.00036657657 -0.0007237086 0.0017761261 0.0005726108 -0.0011678488 -0.0006553445 -0.0019350889 0.0003795008 -0.00077739055 -0.00052724313 0.0010102163 0.0014857096 0.0008550801 -0.0013311291 0.0013081166 -0.0018807319 -0.0013660819 -0.0015619546 -0.00044159548 9.18732e-05 -0.0007347242 0.00035857738 0.0017973576 0.0013066336 -0.00020760545 0.0017782524 0.00030386462 -0.00038587378 -0.0012885253 0.0012650307 -0.0017713838 -0.0003708024 0.0015036955 -0.0005053304 0.00031440676 -0.0014345347 0.00097204023 0.001441188 -0.0018180978 -0.0006415011 0.0015420712 0.0005727249 3.1190716e-06 6.745669e-05 -0.0019265689 0.0019410197 -0.00039036974 -0.0009534053 0.0005363229 0.00020061737 -0.0011599194 0.0011308221 -0.0004900282 -0.001206987 0.001412182 0.0012622541 0.0017235961 0.0002275279 9.883219e-05 -0.0015485336 0.00090658973 0.0018276009 -0.00013270967 -0.00034526613 -0.0007455301 -9.542677e-05 -0.0014871812 0.0011116385 0.00029041708 0.0018158695 -0.0012549136 -0.000995338 -0.0012177384 -0.0014206523 0.0005391678 0.0009565016 0.0002639937 0.0006923178 -0.001834567 -0.00021033069 -0.0015143062 0.0005780162 -0.00052331266 0.0017341182 -0.0006714165 0.0013351181 0.0008035754 0.00026774683 -7.72091e-06 0.0015973581 0.00045961293 0.0016140406 0.000652773 0.0010598707 0.0009971146 -0.0014885286 -0.0011306651 0.00024184743 3.865253e-05 0.00041909475 0.00020663718 0.001481362 -0.0008646834 6.367072e-05 0.0013702826 0.00043984142 0.0008295221 0.000841149 -0.0002481405 -0.001626231 0.000593062 -0.0017350082 -0.00051899743 -0.0018353404 -8.991787e-05 -0.0015357751 0.0014485597 -0.0009556792 0.0019374414 -0.0017665147 -0.0008431465 0.00037492183 -0.00058591086 0.00028276164 -0.00071766786 -0.00017459712 -0.0011198049 -0.0019181829 0.0012373304 7.62232e-05 0.0012721197 -0.0014596831 0.0007143281 -0.0019329896 0.0014877727 0.001157415 -0.0011951325 0.0016044352 -0.001088721 -0.0016718436 0.00029144224 0.00062070607 -0.0015810857 -0.0017449071 0.0017918136 0.00032423635 0.00017287624 0.00048463995 -0.0006852375 0.00033903832 0.00038309017 0.0019163766 -0.0010960759 0.00044285686 0.0012308599 -0.0013053459 -0.0017449454 0.0016923917 0.0013366463 -0.0007849236 0.0011198982 0.00015373329 -0.0009777253 -0.00026395966 -0.00095625885 0.0012000967 0.000382203 -0.0016241053 -2.7755808e-05 -0.00051717844
. 0.0012901507 -0.00022424643 0.0014970803 0.0003805091 -0.00074891915 0.0015938185 0.0005759682 -0.00077568454 -0.0010938512 -0.00060322724 -0.0010031174 0.0006722147 -0.0018127927 -0.0011370246 0.0006525785 3.8561877e-05 0.0011715821 -0.00070350687 -1.0612056e-06 0.00048342673 0.001066517 0.00031471087 0.0019174999 0.0007259562 -0.0014027302 -0.00027458637 -0.0016338042 -0.0010401481 -0.00042907204 -0.001896467 0.0018156669 0.00039652368 -0.00022718935 -0.0010751422 -0.0016620515 -0.0019341633 0.0017470228 -0.0004884261 0.000896633 -0.00088265736 0.0019449912 0.0007137169 0.0001996311 -0.0007896354 0.00023676419 -0.00051690504 0.0014355809 0.0008746536 0.00019307564 0.0006804614 0.0007254136 -0.0013251853 0.0017444881 0.00033927654 -0.001130741 0.0016905944 -0.0002518248 0.0015985201 -0.00029399424 0.0013649203 0.0005327122 -0.0008517286 -0.0007320826 0.0017957181 0.00031086509 -0.0011734364 6.82265e-05 -0.00038272262 0.0003095076 -0.0015076649 0.0014417871 0.000256236 0.0015379132 0.0008694755 -0.0008578043 0.0007329061 -0.00012432324 -0.0019245975 0.0016099073 0.0018847969 0.0018857378 -0.0007425514 -0.0016501177 0.00094334176 -0.0014950497 0.0016665452 0.00053926243 0.0010940013 0.0011949798 9.051539e-05 -0.00040900573 0.00015099236 0.001921296 -0.0013913311 -0.0003026336 -0.00046064524 0.00094985106 0.0012598408 -0.0008068513 0.00070775615 -0.0008754627 0.0006386305 0.0015951177 0.0007088794 -0.0008928401 -0.0005874622 0.00153652 0.0018754086 0.0011363882 -0.0006397824 -0.00035629582 -0.0012222764 -0.0008388116 0.00065946206 -0.0012675456 -0.0012922661 0.0015845669 0.0018566714 0.001590054 0.00029492856 -0.0017176359 -0.0014833957 0.0003074583 -0.0018607904 -0.0014474022 0.00039512932 -0.0005704595 -0.0017884843 0.0012533425 -0.0017484578 -0.0014346011 -0.00034258617 0.00033195864 -0.00020180819 -0.0010171355 0.0012846414 0.001715223 -0.0014477309 0.0019154809 0.0014386154 -0.0014576649 -0.00037072983 0.0008304934 0.001378915 -0.0007162762 -0.001362392 0.00092275447 -0.0017653411 -0.001142479 -0.00025031454 0.001070608 -0.0011109852 0.00093460106 -8.452159e-05 0.00052094564 0.0012512981 0.00027692367 0.0015059478 -6.31958e-05 -0.0016140711 0.0017928182 -0.0009487045 0.0009223679 -0.0007622703 -0.0014314359 -0.0012715601 0.00091371144 -0.00012833184 0.00028565564 -0.0017432661 -0.001005195 -0.0011829311 0.0016431435 -0.0016984333 0.0009808652 -0.00016855578 3.6387082e-05 0.0017185992 -0.0007004314 -0.001355392 0.00014926588 0.0015116957 0.0017814512 -0.0007200714 0.0005338409 0.0009655205 -0.0010340032 0.0013379066 -0.0012605494 0.00040980213 0.0008958982 0.0008563447 -0.00091120665 0.00051608885 0.0014274834 0.0016817434 -0.0018577114 0.0010887407 0.00097031717 -0.00031194784 0.0017939068 -0.0008166458 -0.0003418968 -0.0013406742 -0.00073749135 4.7723166e-05 -0.0006398407 -0.0010578922 0.0012824854 -0.0010353504 -0.0012350202 0.0014920435 0.0018851915 0.00077954953 5.064548e-06 0.00015437893 -0.00018822205 0.0013405404 -0.0012211705 9.90247e-05 0.00083822897 -0.00041251257 0.00017530996 0.00072455814 0.0018965541 0.00042507245 0.0018558201 -0.0011392166 0.0009378343 -0.000708965 -0.00083350093 0.00023810005 -0.0008059209 -0.0010998608 0.0006134071 0.0016287725 -0.0012776877 -0.0017803537 -0.0006506981 0.0014704466 -0.0018916945 0.0018744637 -8.1589744e-05 0.0004508809 -0.00036180514 -0.0011252045 0.0006059753 0.0012100721 -0.0013773884 -0.00022947355 0.000304174 0.00083037117 0.0013947338 -0.00069221866 0.001420571 -0.0010877538 -0.00042884692 0.0017741678 0.0010515717 -0.0016568106 -0.00032334682 -0.001726419 -0.00032078588 0.0011044127 -0.0014491493 0.0010758068 0.0011893889 -0.00073615863 -0.0018863685 -0.0004919375 -0.0004988591 0.0007348348 0.0017425717 0.00039006953 -0.00041217572 0.0005806473 -0.0013285319 -0.0002527829 -0.000290174 0.0018754957 -0.0011345972 -0.0013750782 0.0004605277 0.0005144478 -0.0013958528 -0.0011475832 -0.00023071126 -0.0006451555 -0.0017529259 -0.0007907478 -0.00057909486 0.001270384 0.0001900648 0.000312236 5.489296e-05 -0.00066117285 0.00060525036 0.00013909345 0.0011689374 -0.00015188607 -0.0017383399 0.00017254957 0.0019377187 -0.0010254534 -0.0010195032 -0.0004917765 0.0016765646 -0.00016196001 0.0018396332 -0.0016288691 0.0017610835 -0.0018973954 0.0017972934 0.00036597185 0.00051976996 -0.001144493 0.0016480779 0.0011803391 -0.0010720777 -0.0018549713 0.0013608587 -0.0010809615 -0.0018204337 0.00050745136 -0.0009727048 -0.0014373459 0.0019001119 -0.000309793 -0.00029557984 -0.00078773225 -0.0008593916 -0.000904498 -0.0010933813 -0.0010355307 -0.0015667096 0.0018595472 0.0012497152 -0.0007045211 0.00048427004 -0.0014915293 0.0014694147 0.0016220817 0.00015459715 -0.0013345763 -0.00057737407 0.0009243033 -0.0005735958 0.00061985175 0.0018372629 0.0008501587 -0.0010042735 0.0010683412 -0.0005628027 -0.0012488182 0.001368197 -0.0018073969 -0.00022083575 -0.00027062523 -0.0016437926 -0.00021480642 0.001093517 -0.0010291374 -0.0013721894 0.0012106874 -0.0006696185 -0.0015270279 5.7298228e-05 -9.512438e-06 0.0014728337 0.00011073075 0.0015395323 -0.0019166335 0.00078793825 0.0012142389 0.00020101681 -0.0005541822 0.00020069847 -0.00016387335 -0.0015833935 -0.0013251437 0.00023439857 -0.00039391775 0.0018653976 -0.00018501197 0.0011948249 0.00039928185 0.0015825013 -0.001814552 0.00046697556 -0.00028333766 0.00042053385 -4.258057e-05 -0.0012970697 0.0017670738 -0.0005552627 0.0003736152 -0.0012583961 0.000725808 0.0019526044 -0.00023388206 0.0012848439 -2.4053754e-05 0.0015482529 0.0018845646 -7.5929136e-05 -0.0003317268 -0.0018602016 0.0019284132 -0.0004947967 0.00042726976 -0.00033234362 0.0016266317 0.0016298018 0.00029994498 0.00056307594 0.0012566963 0.00043959278 0.0012590166 2.950843e-05 -0.0004459664 0.001036678 -0.0006675517 -0.00051137805 0.0017173045 -0.0017872312 -0.0006668077 -0.00057104067 0.0011072475 0.0015519353 -0.0012597741 0.0011315893 -4.2237003e-05 -0.0017645273 -0.00047679097 -0.0003090516 -0.0008749037 -0.00015498772 -0.0010227995 0.0011599871 0.001817302 -0.00030989965 0.00065999693 -0.00014649687 -0.00013654122 -0.0013698423 0.000284913 0.00076271436 0.0013494393 0.0012773515 0.00069087936 0.00091039715 -0.0014517072 -0.00027087025 -0.0011297012 0.0013282703 0.0015285715 -0.000835208 0.00022498828 0.0009983819 0.00035305682 0.00015355014 -0.0013167501 0.001920043 -0.0014185571 -0.0011794012 -0.001106674 -0.0012393219 -0.0006816321 -0.0018357772 0.00023066119 -0.0007323654 -0.00049832725 0.0011300308 0.00069383025 0.00035532244 -0.00026827268 0.0019291636 5.643852e-05 0.0009792219 0.0017653998 -0.0019076917 -0.0017884366 0.0019375343 0.000534574 -0.0003685342 0.00092269556 -0.00084250455 -0.0012490893 -0.0016125498 0.0014082277 -0.0004782138 -0.0014735218 -0.001154739 0.0012063883 -0.00048452753 -0.0012006945 -0.00031623026 -0.00028775173 -0.0006358646 -0.0004080843 0.0008021285 0.00028287066 -0.00068183895 0.0005257019 0.0010210975 -0.0017951068 -0.0014765672 0.0012296737 -0.00174584 0.000103425125 -0.0017566957 0.0016349374
values -0.0008385815 -0.001293066 -0.00027026772 -0.00021751458 0.0014712941 0.001779204 -6.8510184e-05 0.00052608945 0.0009252338 2.7881702e-05 -0.0011289066 -0.00011609751 0.00042636227 0.0016214284 -0.00070162606 -0.0019229581 0.0010513528 0.0019161503 -0.0013778857 -0.00011377083 -0.0009891668 0.001256841 0.001886192 -6.505125e-05 0.0010039932 0.0012770861 0.00086114113 -0.0015686003 0.00060598506 -0.00029030978 -0.00042208587 0.0010550944 -0.00025723828 0.0019389589 -0.0001248396 5.149003e-05 -0.0004479764 -0.0016627919 -0.0019162404 0.00096694636 -0.0012931318 0.0005791986 0.00054187165 -0.0013685122 -0.0006125034 -0.0011342894 -0.0016727648 7.454306e-06 0.0019115342 -0.0013038833 -0.00085192453 0.001627017 0.0018161158 0.0019170714 -0.0019320932 0.0009859286 -0.0012972835 0.0013437197 0.0011993942 -0.0006592984 0.0013445579 -0.0015364047 0.000888587 0.0008946038 0.001156891 0.0011483403 -0.0005201851 0.0007608598 -0.0011930717 -0.0012615179 0.0005357454 -0.0018488648 -5.8416277e-05 0.00021311268 0.0015633714 -0.0013674975 -0.00045370194 -0.0008019798 -0.0010210818 -9.2165545e-05 0.0009006278 -0.00097303 -0.00032141735 0.001690699 -0.00025555398 -0.0006976202 0.0014514914 0.00023812591 -6.649876e-05 0.0018476122 0.0015870326 0.00066754967 0.00065590907 -0.00044623297 0.001580961 0.0009884543 -0.0010597156 -0.0011970974 -0.00011706096 -0.001546964 0.00065756054 -0.0018016442 -0.0003016733 0.0006555028 0.00059488765 0.0006171409 -0.0017702475 0.00066780904 0.0010442066 0.0006773302 0.001522054 0.00032334938 0.0012246522 0.0017256083 -0.0001841127 -0.00015688315 0.0004349635 -0.0014713858 0.0010992882 -0.0009765851 -0.00063888426 -0.0003579331 0.0016047396 0.0004387512 -0.00017727469 -0.00055571785 -0.00041248975 -0.00025113323 -0.0009927577 -0.00080631487 3.661029e-05 0.0008895837 0.00035080942 0.0013481802 0.00012494437 -0.0006297517 -0.0014401001 0.0011732434 0.0013613151 -0.0011832628 0.0009148414 0.0018551841 -0.0012462274 -0.000561903 -0.0017754494 0.0006304905 -0.0006719257 0.00039926008 0.0018436485 -0.0016322134 -0.001818955 0.0003352894 -0.0015692215 -0.0017709974 -0.0018271916 -5.632802e-05 -0.0002151765 0.00014526676 -0.00026168418 0.0017656155 0.0017163537 -0.0012416651 0.0016984076 -0.0017633024 -0.00026141177 0.00049606175 -2.1517277e-05 -0.00074235327 9.1568334e-05 0.00019639311 -0.0018376897 -0.00095505547 -0.0015060273 0.00074357283 -0.00017283182 -0.0014616374 0.0011007141 4.6433182e-05 0.0005269309 0.0010607112 -0.00082622725 0.0015322156 -0.0015347076 -0.0006724533 -0.0014387718 0.0001902394 -0.0014434129 0.0017700566 0.0010809125 -0.0014123223 0.0012059424 0.001289899 -0.0014482979 0.0009091387 -0.0015081051 0.0018204434 0.0009160957 -4.4736546e-05 -0.001746437 -0.00017473148 -5.2929623e-05 0.00017708982 0.0016918485 -0.00054221996 -0.0016957065 -0.0017253398 -0.00020655221 0.00026794244 1.703808e-05 -0.00043026125 0.0016694465 2.0787818e-05 0.0012536468 0.00077949767 -0.0014068726 -0.0004147729 -0.001518826 -0.0013198492 -0.0006160105 0.0012920308 -0.00016293488 0.0017351869 -0.00044761412 -0.0010359988 0.00076470803 0.00043290504 -5.4762233e-05 -0.0004790784 -0.0011723703 0.00078860717 -0.0014866346 -0.0017395585 -0.0017893608 0.0016382947 0.00078136404 0.0013851887 0.0019316599 -0.0014112964 0.0007868174 0.00055100326 0.0012021062 -0.0006617096 0.0018223855 -0.0011327001 0.0013734784 0.0013573719 -7.655565e-05 0.0009882781 0.0012977833 0.00030147354 0.0014391644 0.00047044433 -0.0002970253 0.0014442191 0.00091549754 -0.0006195782 0.00032150652 -2.7341302e-05 0.0009693862 -0.0010571158 -0.0008173068 -0.00018319371 0.0007464618 -0.0012854596 0.00153235 -0.00060309353 0.0011210898 0.0005593824 0.0013325165 -0.00087231747 -0.00062540104 0.0005971177 -0.00054195616 0.0011606493 -0.0011629348 0.0005061815 -0.00014116545 -0.000119974604 0.0004958033 -0.00042681606 -0.00083154696 -0.0016704288 0.0004859923 0.0010399821 -0.00114594 0.0017791232 0.00078836596 -0.0010108254 -0.00025648996 0.00076686987 -0.001368244 0.00040143123 0.0010755011 0.0012216475 0.0010598814 0.00071484875 -0.0005375168 -0.001187207 0.0015937346 -0.0014261026 -0.00031642057 -0.00063745375 0.001267327 -0.0012260613 0.000663185 0.00039990712 -0.0007966829 -0.0016099005 -0.0015698683 0.0006846974 -0.0018674368 0.001114609 -0.00056883367 -0.0017916134 -0.001003148 0.0015125528 -0.00033621327 0.0012511984 -0.0018118236 -0.001786432 -0.0010160503 0.00018598419 -0.0014014873 -0.0018449267 -0.0017354821 -9.043235e-05 0.0014479514 -0.001636443 -0.0010416054 0.00029638736 0.0006483074 -0.0016519856 0.001536672 -0.0016047608 0.0009250592 0.0018389276 0.0011055027 0.0012056374 0.001608717 0.000674397 -0.001395402 0.0011224742 -0.0016236212 -0.0011179422 0.0011534523 -0.0015487114 -0.0011465584 -0.00069499295 0.000662707 0.001019472 0.00040142098 0.0009977641 -0.0005131003 0.0008499967 -0.00137664 -0.0003242665 -0.0015126565 3.3946475e-05 0.0009176091 0.0009375061 -0.00090923253 0.00034188922 0.0015256302 -0.0010886365 -0.00073979585 -0.00011670706 -0.0009218282 0.0016986055 0.001473072 0.0018010575 0.0018286887 -0.0016505544 -9.36992e-05 -0.0014856213 -0.0009394076 -0.0017265051 0.0006671434 2.0790845e-05 -0.0013507188 0.0015552898 0.00018612901 5.8314763e-05 -0.0006961066 -0.0006536341 -0.000516101 0.0014887061 0.0004676939 -0.0010099474 0.00092381635 0.00019345642 -0.00053381803 0.0015057519 -0.0007709451 0.0014514688 -0.0008233271 -0.0014368091 -0.0008782293 -0.00076142536 -0.0001375787 -0.00036025583 0.0009982847 0.0010645641 -0.00033961632 0.000729237 -0.00039618462 0.0001434777 -0.00026688236 -0.00048102043 -0.0009212545 -0.00083238026 2.4809036e-05 0.00032215798 -0.0018454511 0.0011867885 -0.00032824557 -0.0005809334 -0.00093634264 -0.00084307604 -0.0009376169 -0.0019148381 -0.00015183864 -0.0015219506 -0.0009398486 -0.0014404259 0.0019405631 -0.0002648232 -0.0015145005 0.0010774785 -0.00157546 -0.00037349318 0.00053427066 -0.0013826457 -0.0017057669 -0.0012971822 0.0014586607 0.0017690815 0.0007795894 0.00046946947 0.000808174 -0.0007950058 0.0019058667 0.0013455704 0.0008034636 0.0017478298 -0.0016394069 0.00018243887 0.0017367597 -0.00018342491 -0.0013159914 -0.00044312142 -0.0005446125 -0.0004879348 -0.00036019203 0.0014223962 -5.868543e-05 0.00082858163 -0.00073272083 0.0016078856 -0.0012699524 -0.0018238823 -0.00080849347 -0.0014386326 -0.00095246383 9.6640084e-05 0.00046579144 0.00033981795 0.0009780428 -0.00027258694 0.00044574216 6.864127e-05 0.0015323053 0.0015677321 -0.00038544764 0.00024559232 -0.0011781077 -0.0009294115 -0.0013614891 -6.1886385e-07 -0.0009599023 -0.0007902924 0.00029388745 0.0005097671 -0.0017809006 0.00034129107 0.0010019941 0.00081261015 -0.0005677657 0.0018516795 0.0018455617 -5.306443e-06 0.00016705017 -0.0018063029 -0.00093845907 -1.9824365e-05 0.0007897443 3.094785e-05 -0.0017040307 0.0011357169 -0.0014482574 0.00167066 0.0010774191 -0.0013233293 0.00055517326 0.0015074769 -0.0011931714 -0.001278694 0.0017966868 0.00035249838 0.0018965721 -0.0019348899 -0.00029324414 0.0013476228
separated -0.00028577386 -0.0003430753 -0.0013826186 -0.0011065946 -0.001273661 0.0017428171 -0.00030950774 -0.0016178725 0.0015656123 -0.0005782988 -0.00026015204 -0.00013199302 0.0005521105 -0.00092125364 -5.03515e-05 -0.00055575575 0.0017140459 0.0013435264 0.00021476098 -0.0011848224 0.0006118428 0.00022196444 -0.0011961766 -0.0011234997 -0.000604806 0.00046610777 -0.0015849681 -0.00097496196 0.0015817406 -0.0007211527 0.0015542846 0.000104645034 -0.0010809309 -0.00096955954 -4.2027215e-05 0.0008970073 -0.0011881769 -0.0010758126 -0.0013302627 0.0013176636 -0.00046948047 0.0007843826 -0.0003176566 -0.0014483281 -0.00024771967 7.873647e-05 0.000700475 -0.0016945326 -0.0013291813 -0.0012806407 0.0005844352 -0.0007308976 0.00019865108 0.0008119146 0.00088259263 0.00046203015 -0.0005611424 0.00012511999 -0.0010530662 -0.001240764 0.0017022843 -0.00079114095 -0.001819925 0.0007287481 0.0016511995 -3.6778823e-05 0.00044233454 -0.00069281535 -0.0008188233 -0.0016835558 -0.0015337922 -0.0017732792 -0.0011661327 0.0016577912 0.0018430906 -0.00032796868 2.9858256e-06 0.0015337646 0.00024659774 -0.0010049355 0.00051328726 0.00035269707 -0.000727808 -0.00095511525 0.0018835405 0.0014938973 -0.0016738626 -0.0010791292 0.00027761966 0.0001787211 -0.0016310628 0.001821905 -0.0010511356 0.0008986953 0.0018029438 0.00021294325 0.0008243378 -0.000530365 -0.001891083 0.00011716918 -0.00021169965 -0.0019376301 0.0013682861 -0.0014425789 0.0010001643 -0.0008628972 -0.0017951238 -0.0017701656 0.0012175145 -0.0010225301 0.0010259434 -0.00030822176 0.0018946362 0.0013990748 0.0019317887 0.0016368807 -0.001536229 -0.0018724665 -0.0010880495 -0.00015664323 0.000978164 0.0007167638 -0.00039555944 0.0009857133 -0.0006639728 -0.0013308139 0.00092002755 -0.0019248559 0.00017380592 -0.0009789774 0.0014833763 -0.0007257852 0.00055019045 -0.0012220265 0.001877972 -0.0010918706 0.00069716544 0.00063280825 0.0017444396 -0.0010869912 -0.0008542173 -0.0012154507 0.0012011463 -0.0008951383 0.00093970384 -0.0001742301 0.0014204577 -0.0011789731 -1.9185634e-05 -1.710922e-05 -0.0016684779 0.0017069086 -0.00041104545 0.001256892 1.7874256e-05 0.0009818762 0.00043235376 0.0017284793 -0.0016268748 0.0016471369 0.0016892895 0.0002071852 0.0008639049 0.0007489368 0.0007921488 -0.00057547604 0.0005555785 0.00014971494 0.00094263727 0.0016431825 -0.0015129045 2.9769491e-05 -0.0017055045 -0.00030755455 -0.001764112 0.00061775 -0.000308098 -0.00013644945 0.0012552877 -0.0015817427 0.0002245301 -0.00047289685 -0.0007286136 -0.0014224463 -0.0015577277 0.0016196228 -0.0014526978 0.0009409382 -0.0007396139 -0.00023706186 0.00054867566 -0.0016766588 -0.001104505 -0.0015116138 -0.0018379884 -0.00092807255 -0.00061725086 9.486612e-05 -0.00013620598 -0.0015383734 -0.0007397104 -0.0005356121 -0.0012470173 -0.0012457517 -0.00050935365 -0.0015465956 -0.001613229 -0.0014815811 0.00069415563 -0.001482118 -0.00072476576 0.001294664 0.0014452217 -0.001249598 0.0013277996 -0.0015177866 2.5750885e-05 0.0012923024 -0.0005546391 0.0018008183 -6.3389016e-05 0.0009149442 0.001357893 -0.0016681111 -0.0011856344 -0.0014248943 -0.00022870138 -0.0013846705 2.134855e-05 -0.0015710258 9.970683e-05 -7.5986936e-05 0.0012641138 -0.0017347039 -0.00061981834 0.0011520161 0.0018035836 -0.00034866107 0.00015180264 -0.0011903364 0.0001603698 -0.0015897383 -0.0014919245 0.00027010834 -1.5912652e-05 0.0010862523 -0.0019016868 0.0003232668 0.0003076273 -0.0010249221 1.3885641e-05 0.0011832119 -0.0012890366 5.6472672e-05 0.0007607692 0.00033309995 0.0005586891 0.0015927017 0.0013066813 0.00068478077 0.001557778 -0.0014974246 0.0014713607 0.0007596769 -0.0011525679 -0.00081877084 0.0012488003 0.0011328456 -0.0019258655 0.000243747 -7.824054e-05 0.00015892045 0.0013823935 -0.0014009669 0.0018830381 -0.0018471817 0.001214766 0.0018547532 -0.00074719376 -0.0018345373 0.0012078338 -0.0017507465 -0.0016201696 -0.00016204167 -0.0012977377 0.0017085347 0.0015335056 0.00016187903 0.0015628985 0.0019227891 0.0010136394 0.00084351725 0.0010503201 0.0012526085 0.00092355674 0.0012472996 -0.0014550284 0.0017304985 0.0016176697 0.0018317505 -0.0017612913 -0.0006732415 -6.6852015e-05 0.0008138566 -0.0016048807 3.2828666e-05 0.0011768439 0.0018701728 -0.0005550866 0.00035663447 0.0012352448 -0.00039051243 0.00038213315 -0.0018212592 0.00013876495 0.00089431927 0.00087855704 -0.0019036499 -0.0010057245 0.0005802327 0.00031087367 -0.0009180181 0.0011365842 0.0006859004 -0.0015282795 0.0019211718 -0.0015071933 -0.00059180416 0.0019029052 0.0002233554 -0.0010830318 0.00022005124 -0.00079911517 -0.0013168904 -0.0015152987 0.0009293194 -0.0017642383 0.00079322234 -0.0010792778 0.0010601304 -0.0008526317 -0.0010905751 0.0012404838 -0.0016885321 0.0002603426 -0.00041512452 -0.001305843 -0.0014951678 0.0013197428 -0.0008720237 0.0008956818 -0.0018868421 0.00037252164 -0.0003818441 -0.0011519665 -0.0005442273 -0.0016908238 -0.0006787872 -0.00050354056 -0.00044703638 -0.0009973845 -0.0017959131 0.001043666 -0.00025399597 0.001205782 0.00060044817 0.001669777 -0.00068668596 -0.001737279 0.00026038595 -0.0017553734 0.0011802369 0.0016489406 9.806374e-05 0.0015043971 0.0016674375 0.00082044833 0.0010576117 0.0017829342 0.000224042 -0.0016115155 -0.0016261325 -0.00034819733 -0.00012223888 0.0017229171 -0.0018185178 -0.0005064288 0.0017799118 -0.0002816921 -0.0017728321 0.00039350978 -0.0011404669 -0.0010707938 -0.0012387235 2.4627981e-05 0.0014111592 0.0008045576 0.0015924694 0.0017280792 0.0008830096 -0.0011818781 0.0013806042 -0.0018608035 -0.00093579956 0.0015625707 0.0015444504 -0.001058957 -0.0015580395 0.0015772266 -0.00074455177 -0.00079402176 0.001403204 0.0010593495 0.00074564724 -0.00024016376 0.0016931681 0.0016508162 0.0013620709 0.0017707854 -0.001128515 0.00019505853 -0.00031849946 0.0012382731 0.0019098112 0.0010092742 0.0007929239 0.0012758432 0.0011480636 1.9996738e-05 -0.0016295487 -0.00042387904 0.0017724728 -0.0009921715 0.00019705757 0.0009520834 -0.0013531351 0.0015997764 0.00028778022 0.0004741661 0.001622611 0.00028448834 0.00017375388 -0.0018406557 0.0019262468 -0.0019269552 0.001670045 0.000986837 -1.1046732e-05 -0.0015377512 0.0018245447 -0.0002691455 0.0010442656 -0.0005917509 -0.0009579878 3.2030086e-05 -0.0015684016 -0.0012971038 -0.0018467556 0.0010449114 8.3799074e-05 -0.00017886072 0.0009959476 -0.0003848276 -0.001442337 0.000560248 -0.0011643798 9.552216e-05 0.0018508829 -0.00018644726 0.0011992377 0.0008717027 -0.0006903762 -0.0010207718 0.0017291638 0.00041110403 -8.835795e-05 0.00017488889 -0.0009611959 0.00069084764 -0.0006054326 0.0008230226 -0.00088995957 -0.00015485928 0.0007621202 -0.0013963468 -0.00049273024 -0.0017034766 0.00030394297 0.00039270596 0.00047017986 0.00021107162 1.7626893e-05 0.0004322209 -0.00018480528 0.001156561 -0.000577045 -0.0009931338 -0.0010405678 -0.0018884479 -0.0015845625 0.0004136629 0.00077822834 -0.0011280794 -0.0018909695 -0.00120222 0.00091180124 -0.0017716734 0.0009923023 0.0012405837 0.0011954947 -0.0014903741 0.0005532869
Tab -0.001065023 0.001767013 -0.0008423226 -0.0004592128 0.0010197626 -0.00016081892 0.0009946798 -0.00082421675 0.0009728719 -0.0019130893 0.001186511 -0.00024284888 -0.001095125 -3.9478764e-06 -0.00023898389 -0.00014101644 -0.00034409342 -0.0018111712 -0.0015240617 -0.0013281521 -0.0016851902 -0.0008861292 0.0017945499 -0.00035393122 -0.0014837561 -0.0011511473 0.0007041495 -0.00053061615 -0.00030444656 -0.00083083403 0.0011644342 -0.001529708 -0.0014644128 0.0014698813 -0.0013594832 0.00042124162 7.225736e-05 0.0018882181 0.00082825613 0.00040373183 0.0005381885 0.00044990005 0.00042965868 -0.00053166854 0.00079905987 0.001191448 0.0017456063 -0.00014617946 -0.00023871497 0.0012630692 -0.0016533043 -0.00012817257 -0.0013033682 0.0009342397 -0.0017475081 0.0006347273 0.001758738 -0.00040380727 -0.0017246082 -0.0015973896 0.0006339974 -0.0010441763 0.0012593081 -0.0002322013 0.0015339204 -9.825593e-05 -0.0012141778 -0.0011135689 0.00015018787 -0.00093312864 0.0012815315 -0.0006872397 -0.001098983 0.00018621422 -0.0009510834 -0.0016038632 -0.0010249729 -0.00036361604 8.513825e-05 0.0007106338 0.0013415806 0.0013140559 0.0011447968 6.255647e-05 -0.0011370105 0.0017577319 -0.0001274983 0.000919929 -0.000278207 0.001132455 0.0010357487 -0.0014252486 -0.00053566974 2.1275831e-05 0.0003973744 -0.0018143912 0.0009451462 0.0006586169 -3.397069e-05 -0.0006830727 -0.0014852858 0.0014836045 -0.0016803097 -0.0014422254 0.00086946436 -0.0016623887 -0.0006414347 -0.00040831184 -0.0003716366 -0.0013350176 0.0008391652 0.0001950902 0.00071417796 -0.000259439 0.0013544965 -0.0018620286 0.0011418392 -0.0010022346 0.00033267238 -0.0013556757 -0.00048461417 -0.001255634 -0.00065449043 0.0019002988 0.0005253353 0.00031354278 -0.0011882482 0.0010884714 -0.0015876205 -0.00044794404 -0.0012633614 -0.0012465345 0.00044863764 -0.00064193574 0.00047462503 0.00076492946 -0.0012246124 -0.00034080143 -0.0005395494 -0.0019133422 -0.0019216007 0.00021679862 0.0008556391 4.5408262e-05 -0.0009515616 0.0007085516 0.00032980973 -0.0018440643 0.0014039923 0.0015181939 -0.0015100706 -0.0001493136 0.0011779906 -0.0005430593 -6.584381e-05 -0.0008241872 0.0011942636 0.0013663198 0.00040747016 -0.0009178822 -0.0003574437 -0.00078101316 -0.001907605 0.0015255844 -0.000119573204 -0.000117980875 0.0013837132 -0.0017648875 0.0012356199 -0.0014776252 -0.0010465246 0.0009913268 -0.00068254303 -0.0006810529 -0.0012320487 -0.0007636512 -0.00051964563 -0.00079980073 0.0018464827 0.0018465659 -7.452676e-05 -5.554501e-05 -0.001101918 0.0015464036 -0.0009657312 0.0011504744 0.0017798741 0.0011239587 -0.00018518534 0.0010821987 0.0013564469 -0.0007579662 0.00013060495 0.0012673405 0.0011464858 -3.4643803e-05 0.00046486314 -0.0012722404 -0.0018281944 -0.00096633146 -0.0010523221 0.00011465349 -0.0007750455 -7.218518e-05 0.0014911236 0.0019015013 0.001538258 0.00046664407 -0.00052994746 0.00047494518 -0.00052537443 -0.0017480752 0.0013462971 -0.0016891679 0.0007397812 -0.00077270204 -0.0010826285 -0.00020382437 -0.0012818321 0.0016765839 -0.0013433464 -0.0017501067 0.0011262223 0.0008718765 0.0009241125 0.000474012 -0.00072763814 -0.0009994728 0.00034612394 0.0016301884 -0.0011039602 -0.0004653209 0.00036100787 0.0013129283 -0.0012494917 -0.0008843269 -0.0005153457 0.0002607091 0.0010490778 0.0010838618 -0.0017010749 0.0014204315 -0.0004887157 -0.00055520306 -0.0017301866 -0.0011279457 0.001845431 0.00060303323 -0.0015708529 0.0005483206 -0.0013813982 -0.0017691182 0.000755036 0.0003978454 0.00024504866 0.001727798 0.0012227932 -0.0009903575 0.00053277914 0.0004970904 0.00046832534 0.00162755 -0.0013502766 -0.00044910773 0.0001970604 0.0012456556 -0.00012670574 0.0015484607 -0.00090857735 -0.0017639452 -0.0013777537 -0.0008081435 0.0018717381 -0.001001419 -0.0009469455 0.0015963833 -0.0014562861 0.00039253128 0.0011164148 -0.0014707688 -5.1362673e-05 -0.00046253693 0.0010870358 -0.0008907134 -0.0012899977 0.0019319803 -0.0009029587 0.0014852076 -0.0016513208 0.001370575 -0.00066206395 -0.0015263399 -0.00022870791 -0.0004629693 -0.00035518664 -0.00022995216 -0.0012728733 -0.00069236057 -0.00062447996 0.0015082606 0.0011458811 -0.0001746586 -0.000940735 0.0010336533 -0.0017261005 0.0003221659 0.00078339875 -0.00038040918 -0.00088365725 -0.0016069715 -0.0016186356 0.0013920667 0.0007103714 -7.5472286e-05 0.0018966298 -0.0016687766 0.00011509238 -8.677668e-05 -0.001576263 -0.001777312 0.0014040552 -0.0007095495 -0.0015431731 0.0015532575 -0.0012215385 -0.0006097376 0.000346801 -0.00065457285 -0.0015556088 -0.00076587265 -0.0017605706 0.00027299952 -0.0009040432 -3.922498e-06 0.0005320604 -0.00046349014 0.0017222983 0.0013754969 -0.000107595464 -0.00012402539 0.00016608345 0.0013184238 0.0017477316 -0.00037656212 -0.0003110459 -0.0005804619 9.825104e-05 -0.0012646439 -0.0003647413 -0.0016890813 0.00012852345 0.00028011808 0.0007280954 -0.00056132 0.0011583145 -0.001382391 0.0019173247 0.00010412093 0.00044834288 0.00085082767 8.190656e-05 0.00050697103 0.00031536072 -0.0018783116 -0.0006147353 -0.0005067531 -0.0018091446 0.0006709611 0.00093746046 -0.00040654629 0.0014487545 -0.00023648795 -5.4426724e-05 0.001129382 -0.001654933 -0.0013497763 0.0014357835 -0.0012856117 0.0016538955 0.0010449218 -0.0015715456 0.0016408416 0.0012340304 -0.0013114854 -0.0016528764 -0.0017255191 0.0007482844 0.0012376562 -0.00041693775 0.00026197964 -0.0016393785 -0.0009998779 0.0009187963 -0.0017702826 -0.0018041423 0.00019689789 -0.0016767362 -0.001355059 0.0009283379 0.0015635851 -0.0014373397 0.0015832235 0.0018319073 0.0009202927 -0.00086079375 0.0018887203 -0.0015092238 -0.0007599145 0.00037773256 -0.0014905303 -0.0019284617 0.000559394 0.0015978692 -0.0009987103 -0.00083808554 0.00076354644 0.0001352774 -0.0016669862 0.0012800284 -0.00061555346 0.00069981744 0.0006157544 0.0017339643 0.0017067622 0.0014280155 -0.0016186673 0.00023608631 -0.00018831366 0.00017131376 0.0017428512 0.000931571 -0.0017430552 0.0019163708 -0.0001740614 7.783156e-05 0.0009680006 -0.0012138574 -7.907092e-05 0.00026870403 0.0013771981 0.0008361221 -0.00037872093 -0.0016537919 -0.00075760926 0.0017146594 -0.001853738 0.0019232156 -3.0032825e-05 -0.00022078282 0.0018758273 0.0018696475 0.0016155064 0.0017576346 -0.0019501243 0.0014657809 -0.0018285969 -0.0015063661 -0.0017242425 0.0004214032 0.0014027709 -0.0012314543 -0.00053013745 -0.00046046823 -0.0008745638 -0.0002562527 0.00094843865 0.00072512776 -0.00063285325 -0.00072510773 -0.0004570624 -0.00063056685 0.00077198027 0.0019028133 0.0015339958 -0.0014764967 -0.0012595155 -0.0017835808 -0.0011582233 0.0007100189 -0.0011756374 0.00033111917 0.001735653 0.0006515556 0.00023259455 0.0017427304 0.001252604 -0.00028115325 -0.00121311 -0.00020635547 0.0014210541 0.0014610414 -0.0007876931 0.0019415161 0.00046911766 0.001001582 -0.0011072198 0.0008552796 5.013775e-05 -0.0018729542 0.0009898455 -0.0017596458 -0.0012635477 0.00054430426 0.0018130471 -0.00041404623 0.0013630751 0.0009898567 0.00079457695 -0.0012096991 0.0009911701 -0.0016226342 -0.0008431489
a 0.0010639541 -0.0015911721 0.0011190716 -0.00068213954 5.203765e-06 -0.0014353278 -0.0012193667 -0.00064667664 0.0016803073 0.0010442846 -0.0018940293 -0.0012838084 0.00066985283 -0.0016635065 0.0012997515 0.00120209 -0.001817229 0.0016895663 0.0015315269 -0.0003502157 0.0003480157 -0.0011123896 0.00121447 0.0015042981 0.00079028285 -0.0017307627 0.0009659468 -0.0005977717 -0.0004310778 0.0011924531 0.00036040996 0.0009037347 -0.001226184 0.0010231466 -0.00069123367 -7.492327e-05 0.0012152004 0.0007962885 0.0014593387 -0.00076512736 0.0006930118 0.0014275047 -0.0006418808 0.0011247538 -0.0018384159 0.0017270702 0.0007330787 0.0010373311 0.00090789236 0.0008919833 -0.0006463262 -0.0012129489 -0.00044580735 0.00027057785 -0.00057457713 -0.0016571337 -0.001228309 0.0016292089 0.0018245594 0.0011642317 -0.0008014259 0.00013569696 -0.0016750405 0.0013002001 9.1370894e-05 0.00144074 -0.0010494292 -0.0005560892 0.0005583926 0.0006757439 -0.001278341 -0.0014387227 0.00039684493 -0.0017598867 0.0011305737 0.0010682475 -0.0007456923 -0.0011017795 -0.0016262894 -0.00037043565 0.0013631042 -4.092022e-05 -0.0015521504 0.0017364444 -0.0016702411 0.0010859158 0.001263252 0.0001905819 -0.0016977659 0.0012061174 -0.0015327872 -0.0009800328 0.0018798413 -0.0016176058 -0.0014899517 -0.00095714023 0.0006764047 0.00037391018 -0.0010856478 -0.00063992105 0.0016764752 0.0019077342 0.0019364678 0.00020419806 0.0007886719 0.00026676827 0.00032670563 0.0009449965 0.0004304764 5.8700098e-05 -0.0006150068 -0.0012743636 0.0015604477 -0.0011663989 0.00054362346 -0.0001807455 -0.0007126704 -0.00096511585 0.00062894914 -0.0011440665 -0.001463827 -0.0005164263 0.0009158943 0.0011804879 -0.00028450647 0.0014255107 -0.0014830607 -0.0009243698 -0.0015353272 -0.001181076 0.0014259412 -0.0018126378 -0.0016898352 -0.0019169021 0.0017974242 -0.00052052387 0.00019479427 -0.0011967798 -0.000494977 1.41731e-05 -0.0004883285 -0.0014397665 -0.0012095589 0.0004951521 -0.0018543627 0.00022388063 -0.0003883508 0.0016168496 -7.769582e-05 0.001213646 -0.0013841472 -0.0014780683 0.0010832539 0.00018354692 -0.0009942038 -0.0005194901 0.0017131157 -0.0017924672 -0.0007180688 0.00019579707 -4.2204047e-05 0.0018581278 -0.000378581 -0.0013858066 -0.0014997537 -0.0019336985 -0.0015280563 -0.001178293 -0.0011615229 -0.00027445005 -0.00010569743 -0.0009209553 0.00041814777 0.00075505325 0.0017637087 -0.0009091315 0.0010016647 0.0014167856 -0.00073376345 -0.0014520863 -0.00065208995 -0.001346089 0.001268635 0.001833505 0.0016157967 -0.0016668304 0.0009858927 0.000996093 0.0010993676 -0.0016259074 3.4216791e-06 -0.0013330465 -0.0017414775 0.0004871462 0.0019394939 0.0012688921 -0.0013803544 0.0004563902 -0.0007624093 0.0019387228 -0.0017190808 0.0018994729 -0.001272988 -0.0013684276 0.00031768042 -0.00013139029 -0.0016629142 -0.00011962699 -6.9984235e-05 -0.001224055 0.0011224316 0.00062001543 0.0016407096 0.0014450115 -0.0012971454 0.00093482295 0.0011120557 0.0011285625 0.0010168194 -0.0009340027 0.0008429717 0.00025741267 1.3643876e-05 -0.0012609689 0.00029749703 0.0010282877 -0.0017990377 0.0016810768 0.0005845318 -7.78283e-06 -0.000656995 7.031788e-05 0.0011883336 0.00093216565 -0.0011625171 0.0015378289 -0.0001246822 -0.0015936184 0.0017321869 0.0009904413 0.00070842844 0.0015448306 -0.0014703684 -0.0011388387 -0.00039173104 -0.0008004594 -0.00031289272 -0.00011487212 -0.0016377042 0.00037126848 0.0004997214 -0.00016433513 0.00095102657 0.00028615282 0.0011694375 -0.00043677166 0.0016649154 -0.0003056454 0.00060113776 -0.00073964684 0.001197183 0.00060102274 0.000106360996 0.0017103117 -0.0015307532 0.0018974263 0.00015259883 -0.00045984657 -0.0008061477 -0.0017781886 -0.00043373182 0.000525211 0.0012848282 0.001771545 -0.0017087108 0.0017689229 -0.0017265668 0.00072905724 0.0015678725 -0.00048995577 -0.001534282 -0.0016280466 0.00022523501 -0.00014879694 -0.0018576935 0.0006055245 0.00044051977 0.0008696269 0.0008650352 0.0006315785 -0.0019172921 0.0011199776 0.0008325109 -0.0015129789 -0.00041435147 6.918004e-05 -0.00012526405 -0.0001888168 -0.0010822432 4.4759363e-06 0.0008633763 -0.00013297098 0.00015630922 0.00040890044 -0.0007763151 -0.0015366906 0.0017906434 -0.0019115335 -0.00048382208 -0.00024732272 -0.0014982191 0.00034598098 0.0015514691 -0.0002961706 0.0015830356 5.7533383e-05 -0.0011273909 -0.00038715499 -0.00014178362 0.0012216978 0.0013907715 0.0012115638 -0.0011706508 -0.0013630455 0.0011899462 0.00048356946 0.0010434808 9.0752495e-05 0.0015364317 -0.0017342917 0.0019281453 -0.0016090861 -0.0003332058 0.0012269511 -0.0018029877 0.0008434281 -0.0013627447 -0.0013366404 0.0004499734 0.00033906684 -0.0005445713 0.0015374441 -0.0013705131 9.063934e-05 0.0017054044 0.00039552385 -0.0013383646 0.00069133425 -0.0009824336 0.00011515757 0.0005584827 0.0014816632 0.0014418166 -0.00095586316 0.0018594053 -0.0010715856 0.001489504 -0.0015591071 -0.0015275897 -0.000217163 -0.0015904158 -0.00067727105 -0.00010044803 -7.399358e-07 -0.0019456148 -0.00127089 -0.0014487598 -7.5724674e-05 0.001013418 -1.5224563e-05 0.0019453517 -0.000759118 0.001574053 0.0011887015 0.0016136733 2.079294e-05 -8.396385e-05 0.00036956533 -0.0019385952 0.0017665648 -0.0004664173 0.0014724799 0.0003987772 0.00056630117 -0.0002427348 -0.001932408 0.00027324422 0.0005636418 -0.0019150802 -0.0007620193 -0.00045865471 -0.0009882255 0.0007732939 0.00041116704 0.0008468719 -0.0012651538 -0.0011724369 0.0009216487 0.0013240338 0.0010794946 0.00093687116 -0.0014147155 0.0015943414 -0.0013595065 -0.0014976896 0.0016612697 -0.000482606 -0.001833807 -0.0006023138 0.001164526 -0.0005651037 0.0009645121 1.9758241e-05 0.0007940931 0.00023143622 -0.0018210846 -0.00071288436 0.0017258921 0.00030081486 -0.0011505142 0.0013699841 0.0014562802 0.0014150357 2.8889626e-06 -0.0017863549 -0.0006810706 0.001003112 -0.0012701792 0.0019030606 -0.0019082942 -0.0015876761 -0.0010379273 0.0011753959 -0.0014989851 0.001687004 -0.0019271239 0.0006824606 0.0006437553 1.0626158e-05 0.0018639443 0.0009981608 5.6309393e-05 0.0009411243 0.0012516333 0.00058725616 0.0018374515 -0.00026149 -0.0016377086 -0.0008742269 -0.0002912816 -0.0014195575 -0.00030551408 0.0015497331 -0.0009813721 0.0009961927 0.0008498607 -0.00013651466 0.0002099718 0.0011181287 -0.0012971701 0.00076112547 0.0017413385 -0.00068628695 -0.0014871736 -0.0017972072 -0.0017590506 0.00075598643 0.0009993531 0.001374848 -0.00028371182 0.00018915441 0.0005960895 -0.0019293532 -0.0018385625 0.0008963938 -0.001640555 -0.0006206394 -0.00084182946 0.0011551753 -0.00067298603 0.0019496514 0.0001086425 -0.0010053667 -0.00071040425 0.00024567032 -0.0010485176 0.0014441928 0.001762415 0.00083841966 -0.0014347744 -0.0011613497 9.874115e-06 -0.00019895774 -0.0010794222 0.0015499601 0.0012181979 -0.0008171543 0.00046530226 0.0010022013 0.00047068647 0.0016736004 -0.00025218492 -0.0012748037 -0.00016292813 -0.00162553 0.0019225981 -0.001682963 -0.00029364182 -0.00055657537 0.0006151062 0.00097087165 -0.0016087056
test -0.00086236367 9.440659e-05 0.000780802 0.0009990683 -0.00027264204 -0.000120227916 -0.0015291725 0.00088630855 -0.0014945532 0.0006422588 -0.0006697568 -0.001522007 0.0013453529 -9.0485715e-05 -0.0018645213 -0.0018315829 0.00011794626 -0.0015948632 0.00073135464 0.0006753508 0.0006537743 -0.001094447 0.0015589116 -0.0017545735 0.0014561218 -0.00012300804 -0.00028748962 0.0007748874 -0.00048639954 -0.00085966813 -0.00047170778 -0.0012087444 -6.878565e-05 -0.0010511741 0.00089898956 -0.0018619297 -0.000850453 -0.0017904721 -0.0018797839 -0.00014703319 -0.0015791344 -0.0011118224 0.0005401955 -0.00028138558 0.00060755695 0.0016137596 -0.0018799389 0.0011881498 -0.0015511719 0.0012771196 0.0014594959 0.0016752577 -0.0015521547 0.0006531686 -0.0015329284 -0.00024343976 -0.00101907 -0.0016679976 0.00096456637 0.0008650487 -0.0007922712 -0.0015188328 0.00069505326 -0.00076639967 -0.0017314907 -0.0008570204 -0.00042386717 0.001711494 -0.0012607893 0.0014314047 0.0011944345 -0.0009599343 -0.0003438126 -0.00049003534 0.00061029557 -8.8267065e-05 -0.0005389871 -0.0017649512 0.0012568891 -0.0018765791 -0.0016889336 0.00026867684 0.0005814369 1.5531994e-06 7.284434e-05 0.0005047026 0.00035215804 0.0014761675 -0.0006711317 -0.0014133144 -0.001539551 0.0015467238 0.0003799519 -0.001134546 0.0012494443 0.0016512851 0.0015515739 -0.0013328262 -0.0010031541 -0.00039352846 -0.0012931518 0.0009226124 0.0011048007 -0.0011701863 0.0014069952 -0.0014935512 0.0012116274 -0.0009050758 0.00038302428 -0.0006393837 0.0006633618 0.0015070378 -0.00027129214 -0.0009722839 -0.0016729764 0.00070923264 0.00082591287 0.0013070131 -0.00083667657 -0.0019012368 0.0013327985 -0.0008830002 0.000863385 0.0015743052 -0.00077071646 0.00031725055 -0.0007007751 -0.0012918886 -0.0011085422 -2.7455755e-05 -0.0014669015 -0.00039146165 -0.00048447264 0.0013116526 0.0002650175 0.0011413806 0.0007463893 -0.000686136 -0.0009939999 0.0018853189 0.001378398 -0.0017645372 0.0010254995 0.0015995235 0.0017932275 -0.0015744762 -0.0003936327 0.00021175559 0.00056895515 -0.0003163571 -0.0009185379 0.0012640817 0.001353367 -7.44005e-05 -0.0011412653 -0.0008534473 -0.0010059995 0.00083199755 0.00010016608 -0.0004608975 -0.0017743887 -0.0002918888 0.0012566809 0.001234442 0.0008254357 -0.00056110707 0.0017673131 0.00011874524 0.00022229318 0.0012069294 -0.0012886568 0.0012760198 0.0019116325 0.0007176423 0.0006684337 0.00081928686 -0.00038108206 -0.0015806424 0.0002887262 0.00017635191 -0.001326781 0.0003818634 0.0010624032 -0.0014024797 0.00049105537 0.0015168992 -0.0016849964 0.0006864738 -0.0016727701 -0.0015520727 0.0013854929 -0.0014775174 -0.00026770117 -0.001548583 -0.0015364148 -0.0013876715 7.978005e-05 0.0003510862 -0.0015450115 -0.0015727311 -0.00062155887 -0.0003559804 -0.0012064117 -0.00082654896 0.0007041121 0.00060000183 0.0012847574 0.00083006144 -0.00017421578 0.0005417434 0.0017673553 0.0003718996 0.00035564243 0.00021683381 -0.0018141889 0.0010456551 0.0009841137 5.186519e-06 0.0017994856 -0.00111693 0.00063470955 -0.0015265723 -0.001743648 0.00039028944 0.0009261488 0.0011911028 -0.0016964555 0.00084954157 0.0004695213 0.0008107277 -0.00013292037 0.001082477 0.001424763 -0.0016407494 -0.0019413335 0.0013719122 -0.00018363952 -0.0018323474 -0.00079765863 0.00023254397 0.0016473272 -0.00033148233 -0.00019873402 -0.001436235 -0.0014962736 0.00028699893 -9.0808266e-05 -0.0015037782 0.0001733022 -0.0017563498 -0.00048538647 0.0008248972 0.00021793817 0.001530098 0.0012855266 -0.00023036795 0.0009674352 0.0011960225 0.0017066528 0.0017743764 0.00096255116 0.0009000841 0.0014041043 -0.00030642308 -0.0011035777 0.0017301211 0.00023677498 -0.0009865218 -0.00017071996 -0.0010213844 0.0017793173 0.00066513015 0.0008370016 0.0012699539 0.0015968336 -0.00093188003 -0.0012379522 -0.00072781194 -0.0007267193 -0.0018460684 -0.00012011862 -0.0015827644 0.0019063408 -0.0006649025 -0.0012338009 -0.0015826543 -0.000693893 -0.0018656105 0.00015287496 0.0010581039 -0.00055996975 0.0014974519 -0.00036582624 -0.0014191302 -0.0006081499 -0.0006145466 -0.0013881578 -0.0018905868 -0.0007938115 -0.00031099597 0.0009781338 -0.001485939 -0.0009713978 0.00026606588 -0.00032959483 0.00069430494 -0.00036624572 0.00084578426 0.0015607238 -0.0015460062 0.0007354287 0.0011684269 -0.00011249788 0.0013214647 -0.0010583673 -0.0008936905 -0.0015341034 0.0018498995 -0.0018378352 -0.000633898 -8.5418185e-05 -0.00094606885 0.0018489746 -0.0013337992 -0.0015666967 0.0018063954 -0.0016216191 0.0018917993 -0.00080181146 0.0011073085 -8.198746e-05 -0.0007818607 -0.0014659544 -0.0012264294 0.0013365838 0.0012360942 3.2542383e-05 0.001248645 0.00075270864 0.0007520653 0.0005232603 -0.0018975944 0.0018097291 -0.0016022638 -0.0005860819 0.0002784029 0.001026381 -0.001801182 0.0003291883 0.0012408005 -0.0017081974 0.0018678319 -0.0010197273 0.0018658818 -0.0012758609 0.0012886191 0.0018270041 -0.0018022867 5.5802146e-05 -0.0015096231 0.0015878589 0.0018693717 -0.001182222 0.00016311089 -0.00043893073 -0.0015148757 0.00016014438 -0.0019342673 0.0005107613 -0.0015035557 0.0011113781 0.0014791872 -0.000497157 -0.00078536663 -0.0018775235 0.00096002396 0.0005696453 0.0017082039 0.00064532406 -0.00056724186 0.00069489994 0.0016849949 0.0018037171 0.0014933426 -0.0016702531 -0.0014788151 0.001418564 -0.0014532586 0.00063401886 0.0015673037 -0.00062788604 0.0013221566 -0.0015932405 0.0012656415 0.0010912596 0.00065213005 -0.001587163 0.001791108 0.0016089538 -0.00030624465 0.000800934 0.0012457273 -0.0003407068 0.0010711015 -0.000786146 -0.0002486776 -0.00023796332 -0.00081324996 -0.00013782718 -0.001504649 0.0007108269 0.0017694457 0.00093538465 0.0012460579 -0.000927024 0.00095072703 -0.0013039405 -0.00096967956 0.0019305291 0.0012516018 -0.0009745569 -0.001186746 0.0014096583 0.0005284363 0.0012885263 -0.0013193032 -0.00018981087 -0.00018307679 -4.2372394e-05 0.00043387903 -0.0013188071 0.0008568795 -0.00053854426 0.0016306886 -0.00020006321 0.0017898274 -0.00016367751 0.0010174937 -0.0014833005 -0.001775792 -6.6771216e-05 -0.00043846422 0.0019470659 0.00088432065 -0.0010901304 0.0014387574 0.00011618202 -0.0018650389 0.001115863 -0.00039135237 -0.0018392719 0.001699622 0.0014143923 0.001669377 7.016629e-05 0.0014997926 0.0010120078 -0.0013558259 0.001814627 -0.00069610606 -0.0019027934 0.0016703394 -0.0010379984 0.0016383467 -0.0015350606 0.0018114768 -0.0011538273 0.000781556 0.0019111302 0.0008223146 -0.0004149866 -0.0009673414 -0.0018980047 0.00082184677 0.0014510573 -0.00092536956 0.0011562441 0.0013368146 -0.0017616856 0.0004106305 -0.0013358841 -0.0008454312 0.00016565176 -0.001372936 -0.0008094079 -0.0014660232 -0.0013707443 -0.0013535641 0.0019375505 0.001625142 -3.501632e-05 -0.0005132885 0.0012181165 0.00026223497 -0.0017571469 -0.0013790017 0.00019891205 0.0015496658 0.00062430743 0.0019213572 0.0012803061 5.742691e-05 0.0016897649 0.0017573469 0.0015737944 0.0018359064 -0.0018337154 0.0006861463 -0.0015257264 -0.0013933522 -0.0016463185 0.00062544737
characters -4.94875e-06 -0.0012437863 0.001082414 0.0015430927 0.0008365847 0.0015327462 -0.00083548576 -0.0012511694 0.00078073225 -0.0005680358 -0.0014023009 0.00071993255 -0.00064751063 -0.0010153954 0.0005115773 0.0013395441 0.0012542283 3.2999797e-05 0.0016881828 0.0005781615 0.0012834559 -0.00017603702 0.00041138814 0.0012023267 -0.0019154192 0.0011393441 0.00025464894 0.0011920533 -0.00028585581 -0.00052822626 -0.0010890815 -0.00055706844 -0.0005057371 -0.0010081526 0.00018984919 0.0015612199 0.0010023861 -0.0014958254 -0.0014515251 -0.0005682156 0.00076381076 -0.0018196548 0.0011899462 0.00060889026 -0.00054964237 0.0017962145 0.0015737462 0.00014145931 0.00094367 -0.001816119 -0.0017175534 -0.0005728555 0.001813983 0.0006316827 0.0010939642 -0.0013224512 0.00083163445 7.726764e-05 -0.00017327772 -0.00063286093 0.0009713835 -0.0017782591 0.0010000494 0.0011099542 -0.00047232755 -0.0008195865 -0.0014444861 -0.0012417843 -0.0009988961 0.00061317894 -0.00094030204 -0.00023380191 -0.001743822 -0.00068569125 -0.00014999209 -0.0015531277 0.00063878606 0.0019109341 0.0008582798 0.000365384 -0.00094668847 -0.00022624253 0.0004396532 0.00034163296 0.0017238792 -0.00018035951 0.0013653076 0.0011299705 0.0005948795 0.0014268048 -0.0009631865 -0.00077281886 0.0013627345 0.0016828201 0.00061865035 -0.0008005671 0.0014883582 0.0005308962 -4.2843978e-05 0.001729197 0.00084003195 0.0007694459 -3.525609e-06 -0.0017397441 -0.00060649024 0.0004779811 -0.0010960955 0.0013878201 0.0014573813 -0.0017481353 -0.0010483855 -0.0011669417 -0.00012587773 -0.00034891142 -0.00040480215 -0.00043267765 0.0006976815 0.0018774074 -0.00089615973 -0.0016166787 0.0007325959 -0.001258766 0.0013097479 0.0005217991 -0.0015374416 -0.0015149226 -0.0018063618 0.00045885504 0.00053839706 0.00051197433 3.267503e-05 0.00020066836 0.0006040444 -0.00030338223 -0.0015735115 -0.00012553032 0.0007223436 -0.0005061994 -0.00041396203 -0.00044101788 0.0014170129 -0.00059031544 0.0018464405 -0.00075630896 -0.0019528465 -0.0012822287 -0.0008573037 0.00024720872 0.0010012494 0.00041885316 0.0017668848 0.00017634837 0.0011004497 3.403572e-05 -0.00041350623 0.0012154464 0.0003934915 0.0016175024 -0.0016233366 -0.0017086554 -0.00010282647 -0.00037007427 -0.00046027036 -0.00011767427 -0.000989279 -0.0015632595 0.0016129118 -0.0006511926 -0.0005568769 -0.0003171057 -0.00023831708 -0.0017981571 -0.00035436384 -0.00026250893 0.0016855873 -0.0015560072 -0.00093160936 -0.00036957365 0.00056392397 -0.0011798772 -0.0010823817 -0.0015596951 0.0010807953 -0.0017027662 -0.00063353253 5.712619e-05 0.00028098043 -0.0019459877 0.0016894669 -0.00040328974 6.543307e-05 -0.0017191671 -0.0015945543 0.00073658285 0.0007838458 0.00058147375 0.00114214 -0.0013544953 -0.00024283091 -0.0005346567 -0.00027816187 0.00087453244 0.00026657418 -0.0014542886 0.00063348125 0.001223949 -0.0011974936 0.00063136336 -0.00084404246 0.0017252755 0.0008036019 0.00039407457 -0.0002006559 -0.0017848164 0.0016896324 -0.00035270947 0.0014381468 0.00073674845 -0.0016136081 -0.000119762764 0.00053384254 -0.00050438754 0.0019079292 -0.000974366 -0.0013975131 0.0007445709 -0.0006931468 -0.0013498225 0.00039583808 0.0010269737 -0.0010792997 -0.00085572706 -0.0014021356 0.0002991158 -0.0009309131 0.0016514484 0.00014556605 0.0003637398 -0.0006489097 0.0014433775 -0.00012614136 -0.0016047953 -0.0014323525 4.5937442e-05 0.0015084594 0.0006051031 -0.001035283 -0.0013161676 -0.0019242235 0.0007647096 -0.0018611131 0.0006249218 0.0003232983 -0.00015956146 -0.0019462254 0.0011497105 -2.0396084e-05 -0.0019415086 -0.0014690415 0.0016760016 0.0003678255 -0.001599825 -0.00016004412 0.0010519854 -0.0018244192 -0.0013473162 -0.00019805918 -0.0019053872 9.087065e-05 0.0003807481 0.0016663809 0.00019487707 0.00025474 0.00095470477 -0.0008343936 0.001417714 2.9633207e-05 -0.00013208303 -0.0018987708 9.710261e-05 0.0013253305 0.0003425411 -0.0015837316 -0.0006525959 -0.0011816857 0.0011792401 -0.0012623707 0.0010282126 -0.0010263359 -0.0013312704 -0.001479775 0.00074666925 -0.0017185484 -0.0011143296 -0.001377533 -0.0008444021 -0.0007908777 0.0002917104 0.0012709243 -0.00023377153 -0.001071329 0.00030613402 0.001096955 -0.0010339533 -0.0010459218 0.0010106027 0.0012276772 -0.0015137863 0.0016039737 -0.0019286 -0.0014474927 -0.0011497466 0.0003549092 1.3569135e-05 0.0006786648 0.0013683417 0.00093577564 -0.0006273103 -0.0012591543 -0.0016116608 -9.464318e-05 0.0018998281 -0.0014996208 0.00071259384 0.0008538737 -0.0008480354 -0.0013638359 -0.0010644424 -0.000987315 -0.0013663269 0.0011590054 -0.0015176657 -0.0005754832 0.00085348537 3.5370274e-05 -0.0014970939 -0.000917795 0.00070289534 0.00049816223 -0.0003745123 -0.00014188432 0.0004991696 0.00028067647 -0.0005154474 0.0010449348 -0.0014987098 0.0012453097 -0.0019537914 -0.0004447805 0.0013060255 -0.00069710315 0.0012827653 0.0010583815 -0.0014431343 -4.912574e-05 -0.0008789792 -0.0015754341 -0.00017494391 0.0012496532 0.0017108204 -0.0009835047 -0.00052138633 -0.0011748623 0.0002258634 0.00051751296 -0.0019205718 0.000472144 -0.0017173727 7.858739e-05 0.0009276324 -0.0010294387 5.073296e-05 -0.0004251115 -0.0016987063 -0.0004707661 0.0008723175 -0.0016717707 -0.0011578162 -0.000104931714 0.0015675892 0.00027655263 0.0019058 -0.0014949781 0.0017582272 -0.0009229081 -0.0012455446 -0.001525565 0.0003577424 -0.00054146803 0.001473918 -0.0001027912 0.00049215223 0.0011647271 -0.0016926978 -0.00040066132 -0.00093500584 -0.0016932733 0.0006685001 0.00047459156 -0.000471251 -0.00037759537 -0.0013114812 -0.0006388832 0.00025354748 0.0015169672 0.0013783869 -0.0007066495 0.0007050796 -0.0005032005 -0.0009243126 -0.00071206014 -0.001200979 0.0006883904 -0.0015214229 -0.0014687196 -0.00087678956 0.0014516242 0.000359696 0.0010722736 0.0016090254 -0.0012169997 -0.00090479915 0.0014951369 0.000966729 0.00091481424 0.0017580249 0.0017211322 -0.000522459 0.00020522659 0.0010709566 0.0017368027 0.0019229674 -0.0016163037 -0.0009978265 0.0009766512 0.00018856666 3.0763666e-05 0.0014682985 0.0012503989 -0.0014102255 -0.0005053006 -0.001655144 0.0013740296 0.00053916156 -0.00043671345 0.00036816206 0.0014996257 0.0015855789 0.0012087068 0.0006189245 0.00030097892 0.00158675 0.00025781343 8.4580606e-05 -0.0018649264 0.0004928152 -0.001654201 0.0012624372 -0.0011287369 -0.0003439797 0.00019324436 -0.00036991655 -0.0017835804 0.00077383674 -0.0012876912 -0.0017183268 0.0007685604 -0.00014721538 0.0012732345 -0.0013678662 0.00015132892 -0.00013492526 0.0011236932 -0.0018975183 0.0011542721 -0.0017515087 -0.001520943 0.00014546249 -0.0005199034 -0.0007580659 -0.0010378514 0.00080020505 -0.0018258598 0.00023322011 0.00082014914 -5.2001647e-05 -9.720055e-05 0.00140187 -0.0018669527 -0.0017570807 0.00086649734 0.0017011589 -0.0015250045 -0.0016211859 -0.00012679544 -0.001765914 0.00041227997 0.0018050692 -0.0011947845 -0.0013186265 0.00173916 -0.00014745854 -0.00073513517 -0.00052939 -0.0017101619 -0.00090581074 -0.00081281934 4.8226957e-05 0.00013410575 0.0014945169 0.0013327828 -0.0002931716
is -0.0019486947 0.00050672377 -0.0011938415 0.0017788811 0.00074310997 -0.00019646785 0.0012900739 -0.0006822336 -0.0007199417 -6.449339e-05 0.0016433885 0.0011595672 0.00030699302 0.0007363276 -0.0005825644 0.0018084962 -0.0013929086 -0.0006323571 -0.0010351792 0.001703854 -0.00061036204 -0.00046614814 0.001396135 -0.0018956652 -0.0005665717 0.00056404364 -0.0012232685 0.0017111821 0.00022803037 -0.0010214045 0.0009628667 0.0015588922 0.0001812994 0.0013315456 -0.0013332549 -0.0007068119 0.0019408176 0.0011086029 0.0003116387 -0.00068237213 0.00086260494 0.000494624 0.0016324648 -3.0873343e-07 0.0016790861 -0.0011443417 -0.001485537 -0.00027394271 0.0005809502 -0.00038732728 0.0011500346 -0.0016430232 -0.0017590031 0.0014803116 0.0012374299 -0.00079797255 -0.00078521343 -0.0006943254 -1.0120682e-05 0.0017724703 0.00018591527 -0.00040020398 -0.00066716434 -0.00040759193 -0.0017959683 0.0013335003 -0.0017642258 -0.00060362904 -0.0013905326 0.0017697713 0.0011312196 -9.353086e-05 0.00076537253 -0.00047509512 0.0019158253 -0.00070834975 0.0009491213 -0.0007411428 0.001865427 0.0018549464 0.0012170833 -4.8459042e-05 -0.00032934477 -0.0016907216 0.0018231752 -0.0016488892 -0.0012805073 0.0010900409 -0.00044584996 0.0015577064 -0.0015365644 0.0017961999 0.0004396818 -0.001671118 0.0007703882 -0.0009678956 0.0012469487 0.0012864738 -0.001711233 0.0012623596 0.0010275084 0.0012662299 -0.0013779567 -0.0012807935 -0.0017308283 0.001027945 -0.00078492984 0.0009374812 0.00093657034 0.0015787522 0.000438618 -0.00021163397 0.00028566108 0.0005819453 -0.0017129544 -0.0011666112 -0.00018532993 0.00095459213 -3.1546457e-05 -0.0018877359 -0.00012294343 0.0013958078 0.0012370939 0.0006773779 -0.0008982024 -0.00072671263 -0.0004059272 -0.0011723868 -0.0016791455 -0.000109770335 0.00035205833 0.0009433378 0.00070114806 0.001670874 -0.0013216517 0.0018119076 -0.0006526334 0.00015840447 -0.00083236466 -0.0007903946 -0.0002905121 -0.0014667083 0.0017516341 0.00089053484 -0.00044152723 0.00037399307 0.0015262049 -0.0010966961 0.0007450883 0.0001377773 0.00056610396 -0.00041740993 -0.001928546 0.0011489119 -0.00027775974 -0.0016245358 0.00013923319 -0.0012053903 0.0014995199 -0.0012494151 -0.00032170536 -7.71787e-05 -0.00083780964 -0.0006684144 0.0014345648 0.0003616598 -0.0018316242 -5.5436976e-05 -0.0018616403 -0.00061738375 0.00096853706 0.0007226763 -0.0011211531 0.00028484152 0.0011347432 -0.0014643087 -0.00066023925 -0.00048152613 -0.0017373208 0.0004105994 0.0012711356 0.00047727767 0.0004640289 -0.00015782984 -0.00015799468 -0.0012245164 -9.637233e-05 0.0012876666 0.00058020186 0.00010655075 0.00152942 0.0005466684 -0.0014496408 0.0014272148 0.0018657681 -0.0017737506 0.0014113984 -0.0014830139 -7.0103444e-05 0.0009005212 -0.0011217352 -0.0015536961 -0.0014233326 -0.0019324315 -0.0013022185 0.0018658908 0.00057136593 -0.001770332 0.001661303 0.0014089658 0.0015353072 0.0018769577 -0.0016935654 -0.00042883167 0.00040952768 0.00047207111 0.0009440847 -0.0015094187 0.00094047305 0.0019404569 -0.0017507449 0.0015417878 0.0006266446 -0.0008122567 -0.0003002514 -0.0016626487 -0.0014617029 0.0010776308 -0.00061144936 0.001951233 -0.001566347 -0.0013765905 0.001199991 0.0015392855 0.00071998034 0.0014136997 0.0012672502 -0.0011283383 0.0016998935 -0.0012375098 -0.00056220056 -0.0011685847 0.0011893257 -0.0008565588 0.00060073636 -0.0003094247 -0.00023365743 -0.001142147 -0.0011265038 -0.00069971965 6.1977655e-05 0.000286903 -0.0006450771 0.00037884922 -0.0011073302 0.0019504472 -0.00016018865 -0.0013572208 -0.0003629399 0.0015500668 -0.0002149418 -0.0010066149 -0.0015715009 -0.0011464253 -0.00062430627 0.0015078592 -0.0014108855 0.0002812692 -1.489534e-05 0.0007692841 -0.0015516537 0.0015528279 -0.0005447124 0.001035078 -0.0018567641 0.0009939307 -0.0016111284 -0.00063511287 -0.00023189024 -0.0007113684 -0.0001430409 4.5844354e-06 0.0008807974 -0.0004377528 -0.00078290654 -0.0012056604 0.0016258454 0.00090094935 0.0017776729 0.0010710033 -0.0009006206 0.0016169366 -0.0013590998 0.0005946008 -0.00065539917 5.230261e-05 0.00073439255 -0.00055113365 -0.00086334534 -0.00038072094 0.000101635 0.001260754 -0.0011435968 0.00091143115 -0.00072443555 -0.0015519634 -0.0010946961 0.0003624782 0.0017164941 0.0015378345 0.0017923745 0.0013456959 -0.00057934364 -0.0004728688 0.0017218224 0.0012658511 0.0011742944 0.0013437362 0.00031669973 0.0004676939 -0.0016029908 0.0014720098 0.0018445838 -0.0013831479 0.00022724876 0.0017072554 0.00071387365 0.0013575361 0.0014901555 -0.00037469785 0.001731137 0.0011692587 -0.00037053484 1.2004981e-05 0.0018960421 0.0011369772 -0.00130582 -0.0006817472 -0.00068142544 0.00060961396 0.00021582702 -0.0016802778 0.00042402744 0.0018786665 0.00046011875 0.0008367661 0.00038325205 0.0015858435 0.0017339177 0.0006172098 -0.00047632074 0.0007041069 -0.0015067772 0.001565519 -0.0007828383 0.0019378196 -0.00187277 -0.0004999705 0.0017356263 -0.0007962994 -0.000382561 0.0009833726 0.0018135125 -7.136888e-05 -0.0013279191 0.001951185 -0.0018605154 0.00024328427 0.0010870858 -0.0015296452 -0.0010999092 -0.0017814026 -1.4015241e-05 0.0009770233 -0.0016065526 -0.00060183695 0.0016386828 -0.0008713689 0.0006201698 0.000686473 -0.000698555 -0.0010104754 0.001625964 -0.0004919574 0.0017501884 -0.00047239615 0.0005957526 0.0010929059 0.00011008582 0.00085839885 -0.0011647262 0.0016432744 -0.00032118638 -0.00086235255 0.0009980863 0.0019379193 -0.001105668 0.00016405387 0.0008470577 -0.00053709885 0.00012498302 0.0017231184 0.0015081661 -0.0012610967 -0.00062631676 0.00180042 -6.235228e-05 -0.0018674759 -0.0001400786 -0.001329628 0.00018086517 0.00016024848 -0.000858905 -0.0008962343 0.001718024 0.0008953046 0.0005031398 0.0003602435 0.0016072982 -0.0009753781 0.0011921723 -0.0001925982 -0.0014954854 -0.0018935979 -0.0003273778 0.001585407 0.00043100165 -0.001753605 0.00023897737 -0.00070791156 -0.0007926277 0.001587865 0.0011372231 7.0374925e-05 0.00047860132 0.00017591775 -0.0019380248 0.00058409316 0.0014029429 0.0007790858 0.00048275944 -0.00069290656 0.0004570901 -0.0014907462 0.000822901 0.00046800962 -7.9940306e-05 -0.00011682068 0.00051433756 0.00043420028 0.00028888392 0.0017833943 0.0006898511 0.0002720626 -0.0005730032 -0.0011853878 -0.001818941 -0.00063674315 0.0008494891 0.0014795715 0.0001241439 -0.0009336772 0.00070301094 -0.0007617343 -0.00014832034 0.0017311603 0.001595255 -8.1725186e-05 -0.0011544195 0.00072132633 0.001916443 0.0016932299 -0.00037266337 0.0013961082 0.0018107016 -0.0018668941 0.0017354588 4.327856e-06 -0.0010147577 0.00071869534 0.0017508953 -0.0014143821 0.0013419953 -0.001255655 -0.0015205396 0.0010752515 -0.000892984 0.0009301938 0.0014392086 0.0018852553 0.0011154746 -0.0017315438 0.0006334232 -0.0017558921 -7.1927905e-05 0.00191053 -0.0009988255 0.00080037024 -0.0011196518 -0.001571727 0.0015654832 0.000633816 0.0014407665 0.00057287095 0.00022733607 0.0007270586 -0.0016449797 0.0012874536 -0.00087606884 0.0009005845 -0.0010669562 0.00020343554
